{"learner":{"attributes":{"scikit_learn":"{\"_estimator_type\": \"regressor\"}"},"feature_names":["avg_event_capacity","ticket_price_avg","gt_avg_13w","gt_max_13w","gt_std_13w","gt_momentum_13w","wiki_avg_views_30d","historical_concerts","year","lockdown","days_since_last_album","album_release_last_12m","market_population","past_year_avg_tickets","population","median_income","career_age","is_missing_support","is_missing_genre","is_missing_album_dates","year_offset","city_cleaned_boston","city_cleaned_chicago","city_cleaned_new_york","city_cleaned_portland","city_cleaned_washington","city_cleaned_other","state_cleaned_california","state_cleaned_florida","state_cleaned_massachusetts","state_cleaned_new_york","state_cleaned_texas","state_cleaned_other","market_cleaned_boston_manchester","market_cleaned_chicago","market_cleaned_los_angeles","market_cleaned_new_york","market_cleaned_washington_dc_hagerstown","market_cleaned_other","genre_cleaned_country","genre_cleaned_dance_electronic","genre_cleaned_latin","genre_cleaned_pop_rock","genre_cleaned_rap_hiphop","genre_cleaned_other","month_sin","month_cos","day_of_week_sin","day_of_week_cos"],"feature_types":["float","float","float","float","float","float","float","float","int","int","float","int","float","float","float","float","float","int","int","int","int","int","int","int","int","int","int","int","int","int","int","int","int","int","int","int","int","int","int","int","int","int","int","int","int","float","float","float","float"],"gradient_booster":{"model":{"cats":{"enc":[],"feature_segments":[],"sorted_idx":[]},"gbtree_model_param":{"num_parallel_tree":"1","num_trees":"300"},"iteration_indptr":[0,1,2,3,4,5,6,7,8,9,10,11,12,13,14,15,16,17,18,19,20,21,22,23,24,25,26,27,28,29,30,31,32,33,34,35,36,37,38,39,40,41,42,43,44,45,46,47,48,49,50,51,52,53,54,55,56,57,58,59,60,61,62,63,64,65,66,67,68,69,70,71,72,73,74,75,76,77,78,79,80,81,82,83,84,85,86,87,88,89,90,91,92,93,94,95,96,97,98,99,100,101,102,103,104,105,106,107,108,109,110,111,112,113,114,115,116,117,118,119,120,121,122,123,124,125,126,127,128,129,130,131,132,133,134,135,136,137,138,139,140,141,142,143,144,145,146,147,148,149,150,151,152,153,154,155,156,157,158,159,160,161,162,163,164,165,166,167,168,169,170,171,172,173,174,175,176,177,178,179,180,181,182,183,184,185,186,187,188,189,190,191,192,193,194,195,196,197,198,199,200,201,202,203,204,205,206,207,208,209,210,211,212,213,214,215,216,217,218,219,220,221,222,223,224,225,226,227,228,229,230,231,232,233,234,235,236,237,238,239,240,241,242,243,244,245,246,247,248,249,250,251,252,253,254,255,256,257,258,259,260,261,262,263,264,265,266,267,268,269,270,271,272,273,274,275,276,277,278,279,280,281,282,283,284,285,286,287,288,289,290,291,292,293,294,295,296,297,298,299,300],"tree_info":[0,0,0,0,0,0,0,0,0,0,0,0,0,0,0,0,0,0,0,0,0,0,0,0,0,0,0,0,0,0,0,0,0,0,0,0,0,0,0,0,0,0,0,0,0,0,0,0,0,0,0,0,0,0,0,0,0,0,0,0,0,0,0,0,0,0,0,0,0,0,0,0,0,0,0,0,0,0,0,0,0,0,0,0,0,0,0,0,0,0,0,0,0,0,0,0,0,0,0,0,0,0,0,0,0,0,0,0,0,0,0,0,0,0,0,0,0,0,0,0,0,0,0,0,0,0,0,0,0,0,0,0,0,0,0,0,0,0,0,0,0,0,0,0,0,0,0,0,0,0,0,0,0,0,0,0,0,0,0,0,0,0,0,0,0,0,0,0,0,0,0,0,0,0,0,0,0,0,0,0,0,0,0,0,0,0,0,0,0,0,0,0,0,0,0,0,0,0,0,0,0,0,0,0,0,0,0,0,0,0,0,0,0,0,0,0,0,0,0,0,0,0,0,0,0,0,0,0,0,0,0,0,0,0,0,0,0,0,0,0,0,0,0,0,0,0,0,0,0,0,0,0,0,0,0,0,0,0,0,0,0,0,0,0,0,0,0,0,0,0,0,0,0,0,0,0,0,0,0,0,0,0,0,0,0,0,0,0,0,0,0,0,0,0,0,0,0,0,0,0],"trees":[{"base_weights":[-1.0854016E-2,-1.5798146E-1,1.475091E0,-2.937433E-1,1.1979674E-1,1.1830978E0,2.1968462E0,-1.8126216E-2,-1.0675166E-2,4.190996E-3,1.1181637E-1,3.752898E-2,7.96775E-2,1.5555088E-1,7.135434E-2],"categories":[],"categories_nodes":[],"categories_segments":[],"categories_sizes":[],"default_left":[0,0,0,0,0,0,0,0,0,0,0,0,0,0,0],"id":0,"left_children":[1,3,5,7,9,11,13,-1,-1,-1,-1,-1,-1,-1,-1],"loss_changes":[1.5968491E3,2.5108043E2,1.2331055E2,2.3879639E1,1.6381781E2,7.75921E1,1.0340051E2,0E0,0E0,0E0,0E0,0E0,0E0,0E0,0E0],"parents":[2147483647,0,0,1,1,2,2,3,3,4,4,5,5,6,6],"right_children":[2,4,6,8,10,12,14,-1,-1,-1,-1,-1,-1,-1,-1],"split_conditions":[8.9115715E-1,-1.8759017E-1,-1.7299896E-1,-5.7788694E-1,1.0246001E0,1.513497E0,-2.1754396E-1,-1.8126216E-2,-1.0675166E-2,4.190996E-3,1.1181637E-1,3.752898E-2,7.96775E-2,1.5555088E-1,7.135434E-2],"split_indices":[1,1,3,1,5,1,6,0,0,0,0,0,0,0,0],"split_type":[0,0,0,0,0,0,0,0,0,0,0,0,0,0,0],"sum_hessian":[7.298E3,6.645E3,6.53E2,4.465E3,2.18E3,4.75E2,1.78E2,2.39E3,2.075E3,2.149E3,3.1E1,2.39E2,2.36E2,7.4E1,1.04E2],"tree_param":{"num_deleted":"0","num_feature":"49","num_nodes":"15","size_leaf_vector":"1"}},{"base_weights":[5.900665E-3,-2.110795E-1,2.1347494E0,-3.0669412E-1,3.612852E-1,1.5172455E0,2.8681576E-1,-1.8033814E-2,-8.20605E-3,9.954586E-3,3.260316E-2,6.724321E-2,9.8461986E-2],"categories":[],"categories_nodes":[],"categories_segments":[],"categories_sizes":[],"default_left":[0,0,0,0,0,0,0,0,0,0,0,0,0],"id":1,"left_children":[1,3,5,7,9,11,-1,-1,-1,-1,-1,-1,-1],"loss_changes":[3.410706E3,3.6707343E2,1.4703843E3,4.353711E1,4.40309E1,3.0408447E1,0E0,0E0,0E0,0E0,0E0,0E0,0E0],"parents":[2147483647,0,0,1,1,2,2,3,3,4,4,5,5],"right_children":[2,4,6,8,10,12,-1,-1,-1,-1,-1,-1,-1],"split_conditions":[1.018407E0,5.5988863E-2,3.417366E0,-3.3026144E-1,4.798348E-1,1.8325313E0,2.8681576E-1,-1.8033814E-2,-8.20605E-3,9.954586E-3,3.260316E-2,6.724321E-2,9.8461986E-2],"split_indices":[0,0,0,0,0,0,0,0,0,0,0,0,0],"split_type":[0,0,0,0,0,0,0,0,0,0,0,0,0],"sum_hessian":[7.371E3,6.693E3,6.78E2,5.738E3,9.55E2,5.85E2,9.3E1,4.153E3,1.585E3,6.2E2,3.35E2,4.39E2,1.46E2],"tree_param":{"num_deleted":"0","num_feature":"49","num_nodes":"13","size_leaf_vector":"1"}},{"base_weights":[-6.208649E-3,-2.0652814E-1,1.956881E0,-2.9903018E-1,2.8675106E-1,1.4158069E0,2.6967207E-1,-1.7484179E-2,-9.437151E-3,5.674306E-3,2.6641076E-2,6.204441E-2,9.3988955E-2],"categories":[],"categories_nodes":[],"categories_segments":[],"categories_sizes":[],"default_left":[0,0,0,0,0,0,0,0,0,0,0,0,0],"id":2,"left_children":[1,3,5,7,9,11,-1,-1,-1,-1,-1,-1,-1],"loss_changes":[2.8710918E3,3.0286856E2,1.2140303E3,3.0493256E1,4.3927147E1,3.4116577E1,0E0,0E0,0E0,0E0,0E0,0E0,0E0],"parents":[2147483647,0,0,1,1,2,2,3,3,4,4,5,5],"right_children":[2,4,6,8,10,12,-1,-1,-1,-1,-1,-1,-1],"split_conditions":[9.555985E-1,-2.4424003E-2,3.417366E0,-3.498052E-1,3.6063278E-1,1.8325313E0,2.6967207E-1,-1.7484179E-2,-9.437151E-3,5.674306E-3,2.6641076E-2,6.204441E-2,9.3988955E-2],"split_indices":[0,0,0,0,0,0,0,0,0,0,0,0,0],"split_type":[0,0,0,0,0,0,0,0,0,0,0,0,0],"sum_hessian":[7.294E3,6.623E3,6.71E2,5.58E3,1.043E3,5.86E2,8.5E1,3.812E3,1.768E3,6.18E2,4.25E2,4.4E2,1.46E2],"tree_param":{"num_deleted":"0","num_feature":"49","num_nodes":"13","size_leaf_vector":"1"}},{"base_weights":[-5.7394933E-3,-2.0469639E-1,1.7128783E0,-2.894435E-1,2.0447586E-1,1.2819372E0,2.5282422E-1,-1.6986666E-2,-1.01372665E-2,2.5176292E-3,1.9333897E-2,4.7371637E-2,7.7748746E-2],"categories":[],"categories_nodes":[],"categories_segments":[],"categories_sizes":[],"default_left":[0,0,0,0,0,0,0,0,0,0,0,0,0],"id":3,"left_children":[1,3,5,7,9,11,-1,-1,-1,-1,-1,-1,-1],"loss_changes":[2.5080767E3,2.284205E2,1.0596755E3,2.3046753E1,3.132891E1,5.3079468E1,0E0,0E0,0E0,0E0,0E0,0E0,0E0],"parents":[2147483647,0,0,1,1,2,2,3,3,4,4,5,5],"right_children":[2,4,6,8,10,12,-1,-1,-1,-1,-1,-1,-1],"split_conditions":[7.882084E-1,-7.7087715E-2,3.417366E0,-3.8784838E-1,2.302416E-1,1.3645256E0,2.5282422E-1,-1.6986666E-2,-1.01372665E-2,2.5176292E-3,1.9333897E-2,4.7371637E-2,7.7748746E-2],"split_indices":[0,0,0,0,0,0,0,0,0,0,0,0,0],"split_type":[0,0,0,0,0,0,0,0,0,0,0,0,0],"sum_hessian":[7.328E3,6.572E3,7.56E2,5.447E3,1.125E3,6.76E2,8E1,3.433E3,2.014E3,6.15E2,5.1E2,3.15E2,3.61E2],"tree_param":{"num_deleted":"0","num_feature":"49","num_nodes":"13","size_leaf_vector":"1"}},{"base_weights":[1.3058218E-3,-1.8259637E-1,1.7676601E0,-2.6184973E-1,3.0531242E-1,1.2844181E0,2.4862985E-1,-1.5010238E-2,-5.16241E-3,9.614838E-3,3.051587E-2,5.269239E-2,7.810345E-2],"categories":[],"categories_nodes":[],"categories_segments":[],"categories_sizes":[],"default_left":[0,0,0,0,0,0,0,0,0,0,0,0,0],"id":4,"left_children":[1,3,5,7,9,11,-1,-1,-1,-1,-1,-1,-1],"loss_changes":[2.3905962E3,2.5797827E2,1.0385254E3,3.4449524E1,3.0977715E1,2.8989075E1,0E0,0E0,0E0,0E0,0E0,0E0,0E0],"parents":[2147483647,0,0,1,1,2,2,3,3,4,4,5,5],"right_children":[2,4,6,8,10,12,-1,-1,-1,-1,-1,-1,-1],"split_conditions":[9.555985E-1,5.5988863E-2,3.417366E0,-2.7461395E-1,5.706909E-1,1.5434031E0,2.4862985E-1,-1.5010238E-2,-5.16241E-3,9.614838E-3,3.051587E-2,5.269239E-2,7.810345E-2],"split_indices":[0,0,0,0,0,0,0,0,0,0,0,0,0],"split_type":[0,0,0,0,0,0,0,0,0,0,0,0,0],"sum_hessian":[7.346E3,6.657E3,6.89E2,5.73E3,9.27E2,6.05E2,8.4E1,4.607E3,1.123E3,6.84E2,2.43E2,3.45E2,2.6E2],"tree_param":{"num_deleted":"0","num_feature":"49","num_nodes":"13","size_leaf_vector":"1"}},{"base_weights":[4.1048466E-3,-1.7803991E-1,1.6633013E0,-2.5803518E-1,2.2362886E-1,1.2207754E0,4.814413E0,-1.5384406E-2,-8.742932E-3,2.9703917E-3,1.9963536E-2,5.3380657E-2,8.973141E-2,1.4248747E-1,2.6783797E-1],"categories":[],"categories_nodes":[],"categories_segments":[],"categories_sizes":[],"default_left":[0,0,0,0,0,0,0,0,0,0,0,0,0,0,0],"id":5,"left_children":[1,3,5,7,9,11,13,-1,-1,-1,-1,-1,-1,-1,-1],"loss_changes":[2.2301394E3,2.1385922E2,9.843363E2,2.2297943E1,3.1433044E1,4.528302E1,1.1694824E1,0E0,0E0,0E0,0E0,0E0,0E0,0E0,0E0],"parents":[2147483647,0,0,1,1,2,2,3,3,4,4,5,5,6,6],"right_children":[2,4,6,8,10,12,14,-1,-1,-1,-1,-1,-1,-1,-1],"split_conditions":[9.1128933E-1,-3.233102E-2,3.417366E0,-3.8784838E-1,2.6082534E-1,1.9384556E0,5.328477E0,-1.5384406E-2,-8.742932E-3,2.9703917E-3,1.9963536E-2,5.3380657E-2,8.973141E-2,1.4248747E-1,2.6783797E-1],"split_indices":[0,0,0,0,0,0,0,0,0,0,0,0,0,0,0],"split_type":[0,0,0,0,0,0,0,0,0,0,0,0,0,0,0],"sum_hessian":[7.366E3,6.641E3,7.25E2,5.541E3,1.1E3,6.42E2,8.3E1,3.456E3,2.085E3,5.74E2,5.26E2,5.19E2,1.23E2,2.5E1,5.8E1],"tree_param":{"num_deleted":"0","num_feature":"49","num_nodes":"15","size_leaf_vector":"1"}},{"base_weights":[-1.0589664E-3,-6.0716495E-2,4.647324E0,-1.9266258E-1,1.0122783E0,1.4429717E-1,2.6045242E-1,-1.27368495E-2,5.1171E-3,3.6706746E-2,6.6811375E-2],"categories":[],"categories_nodes":[],"categories_segments":[],"categories_sizes":[],"default_left":[0,0,0,0,0,0,0,0,0,0,0],"id":6,"left_children":[1,3,5,7,9,-1,-1,-1,-1,-1,-1],"loss_changes":[2.0353273E3,1.0279707E3,1.1183472E1,1.1868059E2,6.527887E1,0E0,0E0,0E0,0E0,0E0,0E0],"parents":[2147483647,0,0,1,1,2,2,3,3,4,4],"right_children":[2,4,6,8,10,-1,-1,-1,-1,-1,-1],"split_conditions":[3.417366E0,6.163427E-1,5.328477E0,-1.4437196E-1,1.3645256E0,1.4429717E-1,2.6045242E-1,-1.27368495E-2,5.1171E-3,3.6706746E-2,6.6811375E-2],"split_indices":[0,0,0,0,0,0,0,0,0,0,0],"split_type":[0,0,0,0,0,0,0,0,0,0,0],"sum_hessian":[7.341E3,7.253E3,8.8E1,6.463E3,7.9E2,2.9E1,5.9E1,5.342E3,1.121E3,4.35E2,3.55E2],"tree_param":{"num_deleted":"0","num_feature":"49","num_nodes":"11","size_leaf_vector":"1"}},{"base_weights":[4.2093433E-3,-1.5059674E-1,1.6165856E0,-2.1734662E-1,3.4912613E-1,1.139446E0,4.350456E0,-1.2846328E-2,-2.8660777E-3,1.2348288E-2,3.0402709E-2,5.0706368E-2,7.903903E-2,1.3550293E-1,2.4315456E-1],"categories":[],"categories_nodes":[],"categories_segments":[],"categories_sizes":[],"default_left":[0,0,0,0,0,0,0,0,0,0,0,0,0,0,0],"id":7,"left_children":[1,3,5,7,9,11,13,-1,-1,-1,-1,-1,-1,-1,-1],"loss_changes":[1.8405891E3,2.2457585E2,8.1403845E2,3.730374E1,1.9627235E1,2.0974304E1,7.8494873E0,0E0,0E0,0E0,0E0,0E0,0E0,0E0,0E0],"parents":[2147483647,0,0,1,1,2,2,3,3,4,4,5,5,6,6],"right_children":[2,4,6,8,10,12,14,-1,-1,-1,-1,-1,-1,-1,-1],"split_conditions":[1.0876307E0,1.3401471E-1,3.417366E0,-2.5089288E-1,6.840745E-1,1.9384556E0,5.328477E0,-1.2846328E-2,-2.8660777E-3,1.2348288E-2,3.0402709E-2,5.0706368E-2,7.903903E-2,1.3550293E-1,2.4315456E-1],"split_indices":[0,0,0,0,0,0,0,0,0,0,0,0,0,0,0],"split_type":[0,0,0,0,0,0,0,0,0,0,0,0,0,0,0],"sum_hessian":[7.36E3,6.719E3,6.41E2,5.931E3,7.88E2,5.52E2,8.9E1,4.749E3,1.182E3,5.74E2,2.14E2,4.44E2,1.08E2,2.9E1,6E1],"tree_param":{"num_deleted":"0","num_feature":"49","num_nodes":"15","size_leaf_vector":"1"}},{"base_weights":[4.3094656E-3,-1.5361972E-1,1.4378179E0,-2.2106601E-1,1.8569325E-1,1.0261807E0,4.0724444E0,-1.3811816E-2,-7.98718E-3,2.980594E-3,1.7877314E-2,3.990621E-2,6.1773945E-2,1.296453E-1,2.2654879E-1],"categories":[],"categories_nodes":[],"categories_segments":[],"categories_sizes":[],"default_left":[0,0,0,0,0,0,0,0,0,0,0,0,0,0,0],"id":8,"left_children":[1,3,5,7,9,11,13,-1,-1,-1,-1,-1,-1,-1,-1],"loss_changes":[1.6698392E3,1.5218906E2,7.693972E2,1.8227142E1,2.3478966E1,2.4194458E1,2.0775146E0,0E0,0E0,0E0,0E0,0E0,0E0,0E0,0E0],"parents":[2147483647,0,0,1,1,2,2,3,3,4,4,5,5,6,6],"right_children":[2,4,6,8,10,12,14,-1,-1,-1,-1,-1,-1,-1,-1],"split_conditions":[9.1128933E-1,-3.233102E-2,3.417366E0,-4.1708943E-1,3.1274313E-1,1.4534421E0,5.328477E0,-1.3811816E-2,-7.98718E-3,2.980594E-3,1.7877314E-2,3.990621E-2,6.1773945E-2,1.296453E-1,2.2654879E-1],"split_indices":[0,0,0,0,0,0,0,0,0,0,0,0,0,0,0],"split_type":[0,0,0,0,0,0,0,0,0,0,0,0,0,0,0],"sum_hessian":[7.362E3,6.635E3,7.27E2,5.538E3,1.097E3,6.35E2,9.2E1,2.9E3,2.638E3,6.39E2,4.58E2,3.17E2,3.18E2,3E1,6.2E1],"tree_param":{"num_deleted":"0","num_feature":"49","num_nodes":"15","size_leaf_vector":"1"}},{"base_weights":[6.3366788E-3,-4.602112E-2,4.132225E0,-1.5693371E-1,9.205953E-1,1.5377818E-1,2.6342008E-1,-1.0950621E-2,5.1595303E-3,3.4455936E-2,6.0348928E-2],"categories":[],"categories_nodes":[],"categories_segments":[],"categories_sizes":[],"default_left":[0,0,0,0,0,0,0,0,0,0,0],"id":9,"left_children":[1,3,5,7,9,-1,-1,-1,-1,-1,-1],"loss_changes":[1.5859594E3,7.760661E2,2.359375E1,1.0510881E2,4.3900757E1,0E0,0E0,0E0,0E0,0E0,0E0],"parents":[2147483647,0,0,1,1,2,2,3,3,4,4],"right_children":[2,4,6,8,10,-1,-1,-1,-1,-1,-1],"split_conditions":[3.417366E0,6.840745E-1,6.023698E0,-1.531741E-1,1.4534421E0,1.5377818E-1,2.6342008E-1,-1.0950621E-2,5.1595303E-3,3.4455936E-2,6.0348928E-2],"split_indices":[0,0,0,0,0,0,0,0,0,0,0],"split_type":[0,0,0,0,0,0,0,0,0,0,0],"sum_hessian":[7.319E3,7.232E3,8.7E1,6.492E3,7.4E2,5.5E1,3.2E1,5.244E3,1.248E3,4.2E2,3.2E2],"tree_param":{"num_deleted":"0","num_feature":"49","num_nodes":"11","size_leaf_vector":"1"}},{"base_weights":[1.0834907E-4,-1.32497E-1,1.3419124E0,-1.8666492E-1,2.923194E-1,9.65443E-1,3.7535596E0,-1.0942214E-2,-1.9988716E-3,1.0297195E-2,2.334193E-2,4.2233016E-2,7.015039E-2,1.4132181E-1,2.4106054E-1],"categories":[],"categories_nodes":[],"categories_segments":[],"categories_sizes":[],"default_left":[0,0,0,0,0,0,0,0,0,0,0,0,0,0,0],"id":10,"left_children":[1,3,5,7,9,11,13,-1,-1,-1,-1,-1,-1,-1,-1],"loss_changes":[1.3036523E3,1.5352394E2,5.768911E2,2.7690994E1,1.04142685E1,2.299585E1,1.2628906E1,0E0,0E0,0E0,0E0,0E0,0E0,0E0,0E0],"parents":[2147483647,0,0,1,1,2,2,3,3,4,4,5,5,6,6],"right_children":[2,4,6,8,10,12,14,-1,-1,-1,-1,-1,-1,-1,-1],"split_conditions":[1.018407E0,1.3401471E-1,3.417366E0,-2.2761941E-1,6.163427E-1,1.9384556E0,6.023698E0,-1.0942214E-2,-1.9988716E-3,1.0297195E-2,2.334193E-2,4.2233016E-2,7.015039E-2,1.4132181E-1,2.4106054E-1],"split_indices":[0,0,0,0,0,0,0,0,0,0,0,0,0,0,0],"split_type":[0,0,0,0,0,0,0,0,0,0,0,0,0,0,0],"sum_hessian":[7.312E3,6.658E3,6.54E2,5.909E3,7.49E2,5.72E2,8.2E1,4.84E3,1.069E3,5.11E2,2.38E2,4.61E2,1.11E2,5.4E1,2.8E1],"tree_param":{"num_deleted":"0","num_feature":"49","num_nodes":"15","size_leaf_vector":"1"}},{"base_weights":[1.5692811E-3,-1.1851005E-1,1.2530062E0,-1.7479108E-1,2.670078E-1,1.0239118E0,3.197127E0,-1.0880646E-2,-4.0720482E-3,7.1959286E-3,2.0159893E-2,3.7708953E-2,6.355872E-2,1.7252499E-1,4.959025E-2],"categories":[],"categories_nodes":[],"categories_segments":[],"categories_sizes":[],"default_left":[0,0,0,0,0,0,0,0,0,0,0,0,0,0,0],"id":11,"left_children":[1,3,5,7,9,11,13,-1,-1,-1,-1,-1,-1,-1,-1],"loss_changes":[1.1018259E3,1.4521553E2,2.6661584E2,2.3039001E1,1.3609409E1,3.2605103E1,1.6099182E1,0E0,0E0,0E0,0E0,0E0,0E0,0E0,0E0],"parents":[2147483647,0,0,1,1,2,2,3,3,4,4,5,5,6,6],"right_children":[2,4,6,8,10,12,14,-1,-1,-1,-1,-1,-1,-1,-1],"split_conditions":[8.519461E-1,-1.4659703E-2,4.6769166E0,-3.437411E-1,3.1702492E-1,1.4258E0,2.8390827E0,-1.0880646E-2,-4.0720482E-3,7.1959286E-3,2.0159893E-2,3.7708953E-2,6.355872E-2,1.7252499E-1,4.959025E-2],"split_indices":[13,13,13,13,13,13,1,0,0,0,0,0,0,0,0],"split_type":[0,0,0,0,0,0,0,0,0,0,0,0,0,0,0],"sum_hessian":[7.317E3,6.68E3,6.37E2,5.833E3,8.47E2,5.77E2,6E1,3.989E3,1.844E3,4.53E2,3.94E2,2.87E2,2.9E2,5.1E1,9E0],"tree_param":{"num_deleted":"0","num_feature":"49","num_nodes":"15","size_leaf_vector":"1"}},{"base_weights":[2.1635038E-3,-1.1235383E-1,1.2018296E0,-1.7566274E-1,1.9033022E-1,9.4806844E-1,2.8653922E0,-1.1079474E-2,-5.748651E-3,4.227729E-3,1.9748488E-2,3.618992E-2,5.848359E-2,6.7011304E-2,1.5752093E-1],"categories":[],"categories_nodes":[],"categories_segments":[],"categories_sizes":[],"default_left":[0,0,0,0,0,0,0,0,0,0,0,0,0,0,0],"id":12,"left_children":[1,3,5,7,9,11,13,-1,-1,-1,-1,-1,-1,-1,-1],"loss_changes":[1.01051263E3,1.287188E2,2.543443E2,1.5114777E1,2.4628216E1,2.2471802E1,1.1391602E1,0E0,0E0,0E0,0E0,0E0,0E0,0E0,0E0],"parents":[2147483647,0,0,1,1,2,2,3,3,4,4,5,5,6,6],"right_children":[2,4,6,8,10,12,14,-1,-1,-1,-1,-1,-1,-1,-1],"split_conditions":[8.519461E-1,-1.4106366E-1,2.7943318E0,-4.0085307E-1,3.1702492E-1,1.4258E0,2.150553E6,-1.1079474E-2,-5.748651E-3,4.227729E-3,1.9748488E-2,3.618992E-2,5.848359E-2,6.7011304E-2,1.5752093E-1],"split_indices":[13,13,13,13,13,13,14,0,0,0,0,0,0,0,0],"split_type":[0,0,0,0,0,0,0,0,0,0,0,0,0,0,0],"sum_hessian":[7.34E3,6.704E3,6.36E2,5.548E3,1.156E3,5.59E2,7.7E1,3.144E3,2.404E3,7.69E2,3.87E2,2.9E2,2.69E2,1.7E1,6E1],"tree_param":{"num_deleted":"0","num_feature":"49","num_nodes":"15","size_leaf_vector":"1"}},{"base_weights":[7.2889975E-3,-1.05982274E-1,1.1990978E0,-1.668143E-1,1.8746912E-1,9.653895E-1,3.076844E0,-1.0457667E-2,-5.452375E-3,2.8003016E-3,1.6139438E-2,3.7436992E-2,6.5636486E-2,1.6629882E-1,4.3902848E-2],"categories":[],"categories_nodes":[],"categories_segments":[],"categories_sizes":[],"default_left":[0,0,0,0,0,0,0,0,0,0,0,0,0,0,0],"id":13,"left_children":[1,3,5,7,9,11,13,-1,-1,-1,-1,-1,-1,-1,-1],"loss_changes":[9.922836E2,1.198702E2,2.623017E2,1.3261826E1,2.0137997E1,3.6911926E1,1.9704834E1,0E0,0E0,0E0,0E0,0E0,0E0,0E0,0E0],"parents":[2147483647,0,0,1,1,2,2,3,3,4,4,5,5,6,6],"right_children":[2,4,6,8,10,12,14,-1,-1,-1,-1,-1,-1,-1,-1],"split_conditions":[8.519461E-1,-1.4106366E-1,4.6769166E0,-4.0085307E-1,1.422238E-1,1.5730674E0,2.8390827E0,-1.0457667E-2,-5.452375E-3,2.8003016E-3,1.6139438E-2,3.7436992E-2,6.5636486E-2,1.6629882E-1,4.3902848E-2],"split_indices":[13,13,13,13,13,13,1,0,0,0,0,0,0,0,0],"split_type":[0,0,0,0,0,0,0,0,0,0,0,0,0,0,0],"sum_hessian":[7.335E3,6.702E3,6.33E2,5.555E3,1.147E3,5.7E2,6.3E1,3.191E3,2.364E3,5.88E2,5.59E2,3.62E2,2.08E2,5.4E1,9E0],"tree_param":{"num_deleted":"0","num_feature":"49","num_nodes":"15","size_leaf_vector":"1"}},{"base_weights":[4.257762E-3,-3.7268143E-2,3.3147502E0,-1.284158E-1,7.094744E-1,1.20552324E-1,2.1566784E-1,-8.399988E-3,4.551136E-3,3.0347502E-2,6.0299296E-2],"categories":[],"categories_nodes":[],"categories_segments":[],"categories_sizes":[],"default_left":[0,0,0,0,0,0,0,0,0,0,0],"id":14,"left_children":[1,3,5,7,9,-1,-1,-1,-1,-1,-1],"loss_changes":[1.0208861E3,4.9813995E2,2.6319275E1,5.682544E1,3.5591034E1,0E0,0E0,0E0,0E0,0E0,0E0],"parents":[2147483647,0,0,1,1,2,2,3,3,4,4],"right_children":[2,4,6,8,10,-1,-1,-1,-1,-1,-1],"split_conditions":[3.417366E0,6.391686E-1,6.023698E0,-7.7087715E-2,1.9384556E0,1.20552324E-1,2.1566784E-1,-8.399988E-3,4.551136E-3,3.0347502E-2,6.0299296E-2],"split_indices":[0,0,0,0,0,0,0,0,0,0,0],"split_type":[0,0,0,0,0,0,0,0,0,0,0],"sum_hessian":[7.4E3,7.313E3,8.7E1,6.522E3,7.91E2,5.5E1,3.2E1,5.529E3,9.93E2,6.66E2,1.25E2],"tree_param":{"num_deleted":"0","num_feature":"49","num_nodes":"11","size_leaf_vector":"1"}},{"base_weights":[1.0771436E-3,-9.9226534E-2,1.1845775E0,-1.4854269E-1,2.4945496E-1,8.389787E-1,3.1381834E0,-9.094415E-3,-2.830032E-3,8.434964E-3,2.1088032E-2,3.5732727E-2,5.9542246E-2,1.1615976E-1,2.0671304E-1],"categories":[],"categories_nodes":[],"categories_segments":[],"categories_sizes":[],"default_left":[0,0,0,0,0,0,0,0,0,0,0,0,0,0,0],"id":15,"left_children":[1,3,5,7,9,11,13,-1,-1,-1,-1,-1,-1,-1,-1],"loss_changes":[8.7053796E2,1.1625393E2,3.7092047E2,1.7937637E1,1.0877499E1,1.602118E1,1.56467285E1,0E0,0E0,0E0,0E0,0E0,0E0,0E0,0E0],"parents":[2147483647,0,0,1,1,2,2,3,3,4,4,5,5,6,6],"right_children":[2,4,6,8,10,12,14,-1,-1,-1,-1,-1,-1,-1,-1],"split_conditions":[1.1931074E0,1.3401471E-1,3.417366E0,-3.1355226E-1,6.840745E-1,1.9384556E0,6.023698E0,-9.094415E-3,-2.830032E-3,8.434964E-3,2.1088032E-2,3.5732727E-2,5.9542246E-2,1.1615976E-1,2.0671304E-1],"split_indices":[0,0,0,0,0,0,0,0,0,0,0,0,0,0,0],"split_type":[0,0,0,0,0,0,0,0,0,0,0,0,0,0,0],"sum_hessian":[7.317E3,6.749E3,5.68E2,5.917E3,8.32E2,4.89E2,7.9E1,4.333E3,1.584E3,5.76E2,2.56E2,3.74E2,1.15E2,5.3E1,2.6E1],"tree_param":{"num_deleted":"0","num_feature":"49","num_nodes":"15","size_leaf_vector":"1"}},{"base_weights":[2.1670784E-3,-4.159587E-2,2.5512695E0,-1.268801E-1,5.2140874E-1,1.6823134E0,1.6496731E-1,-8.148815E-3,5.3197646E-4,1.638166E-2,3.588285E-2,2.6318211E-2,9.1208495E-2],"categories":[],"categories_nodes":[],"categories_segments":[],"categories_sizes":[],"default_left":[0,0,0,0,0,0,0,0,0,0,0,0,0],"id":16,"left_children":[1,3,5,7,9,11,-1,-1,-1,-1,-1,-1,-1],"loss_changes":[8.1954834E2,3.4610168E2,4.9365845E1,3.1209389E1,3.414331E1,4.7042847E0,0E0,0E0,0E0,0E0,0E0,0E0,0E0],"parents":[2147483647,0,0,1,1,2,2,3,3,4,4,5,5],"right_children":[2,4,6,8,10,12,-1,-1,-1,-1,-1,-1,-1],"split_conditions":[2.775555E0,4.186673E-1,5.328477E0,-2.1613185E-1,1.1931074E0,-1.5706311E-1,1.6496731E-1,-8.148815E-3,5.3197646E-4,1.638166E-2,3.588285E-2,2.6318211E-2,9.1208495E-2],"split_indices":[0,0,0,0,0,1,0,0,0,0,0,0,0],"split_type":[0,0,0,0,0,0,0,0,0,0,0,0,0],"sum_hessian":[7.321E3,7.202E3,1.19E2,6.259E3,9.43E2,6.3E1,5.6E1,4.961E3,1.298E3,4.83E2,4.6E2,1E1,5.3E1],"tree_param":{"num_deleted":"0","num_feature":"49","num_nodes":"13","size_leaf_vector":"1"}},{"base_weights":[1.9788893E-3,-3.411035E-2,2.8709235E0,-1.209681E-1,5.24329E-1,1.04313254E-1,1.9848919E-1,-7.824656E-3,2.685744E-4,1.726377E-2,3.8693108E-2],"categories":[],"categories_nodes":[],"categories_segments":[],"categories_sizes":[],"default_left":[0,0,0,0,0,0,0,0,0,0,0],"id":17,"left_children":[1,3,5,7,9,-1,-1,-1,-1,-1,-1],"loss_changes":[7.5840656E2,3.4999683E2,3.281366E1,2.8156845E1,4.126471E1,0E0,0E0,0E0,0E0,0E0,0E0],"parents":[2147483647,0,0,1,1,2,2,3,3,4,4],"right_children":[2,4,6,8,10,-1,-1,-1,-1,-1,-1],"split_conditions":[3.417366E0,4.186673E-1,6.023698E0,-2.2761941E-1,1.3267807E0,1.04313254E-1,1.9848919E-1,-7.824656E-3,2.685744E-4,1.726377E-2,3.8693108E-2],"split_indices":[0,0,0,0,0,0,0,0,0,0,0],"split_type":[0,0,0,0,0,0,0,0,0,0,0],"sum_hessian":[7.296E3,7.21E3,8.6E1,6.244E3,9.66E2,5.9E1,2.7E1,4.877E3,1.367E3,5.71E2,3.95E2],"tree_param":{"num_deleted":"0","num_feature":"49","num_nodes":"11","size_leaf_vector":"1"}},{"base_weights":[3.440173E-3,-3.6425725E-2,2.3708026E0,-1.0642882E-1,5.3988886E-1,1.7538893E0,1.8256718E-1,-6.9062593E-3,3.7180742E-3,1.9306732E-2,3.5928782E-2,2.18128E-2,9.477537E-2],"categories":[],"categories_nodes":[],"categories_segments":[],"categories_sizes":[],"default_left":[0,0,0,0,0,0,0,0,0,0,0,0,0],"id":18,"left_children":[1,3,5,7,9,11,-1,-1,-1,-1,-1,-1,-1],"loss_changes":[7.0092773E2,2.9396918E2,6.1363953E1,3.736074E1,1.9516235E1,1.1587006E1,0E0,0E0,0E0,0E0,0E0,0E0,0E0],"parents":[2147483647,0,0,1,1,2,2,3,3,4,4,5,5],"right_children":[2,4,6,8,10,12,-1,-1,-1,-1,-1,-1,-1],"split_conditions":[2.775555E0,6.163427E-1,6.023698E0,-7.7087715E-2,1.3645256E0,-1.5706311E-1,1.8256718E-1,-6.9062593E-3,3.7180742E-3,1.9306732E-2,3.5928782E-2,2.18128E-2,9.477537E-2],"split_indices":[0,0,0,0,0,1,0,0,0,0,0,0,0],"split_type":[0,0,0,0,0,0,0,0,0,0,0,0,0],"sum_hessian":[7.4E3,7.282E3,1.18E2,6.498E3,7.84E2,8.8E1,3E1,5.533E3,9.65E2,4.32E2,3.52E2,1.1E1,7.7E1],"tree_param":{"num_deleted":"0","num_feature":"49","num_nodes":"13","size_leaf_vector":"1"}},{"base_weights":[1.7117352E-3,-4.3664563E-2,1.8147961E0,-1.1531639E-1,3.7205794E-1,1.1718844E0,1.475465E-1,-7.86323E-3,-2.33945E-3,1.1568529E-2,2.7868778E-2,1.5691804E-2,6.394917E-2],"categories":[],"categories_nodes":[],"categories_segments":[],"categories_sizes":[],"default_left":[0,0,0,0,0,0,0,0,0,0,0,0,0],"id":19,"left_children":[1,3,5,7,9,11,-1,-1,-1,-1,-1,-1,-1],"loss_changes":[6.031197E2,2.1262662E2,1.1057092E2,1.7335312E1,2.6152435E1,8.18129E0,0E0,0E0,0E0,0E0,0E0,0E0,0E0],"parents":[2147483647,0,0,1,1,2,2,3,3,4,4,5,5],"right_children":[2,4,6,8,10,12,-1,-1,-1,-1,-1,-1,-1],"split_conditions":[2.0834672E0,2.6082534E-1,5.328477E0,-3.498052E-1,1.0876307E0,6.6009486E-1,1.475465E-1,-7.86323E-3,-2.33945E-3,1.1568529E-2,2.7868778E-2,1.5691804E-2,6.394917E-2],"split_indices":[0,0,0,0,0,13,0,0,0,0,0,0,0],"split_type":[0,0,0,0,0,0,0,0,0,0,0,0,0],"sum_hessian":[7.306E3,7.132E3,1.74E2,6.088E3,1.044E3,1.18E2,5.6E1,3.766E3,2.322E3,6.02E2,4.42E2,1.6E1,1.02E2],"tree_param":{"num_deleted":"0","num_feature":"49","num_nodes":"13","size_leaf_vector":"1"}},{"base_weights":[5.7536163E-3,-3.1613927E-2,2.2565138E0,-9.365721E-2,5.1299185E-1,1.652552E0,1.7602855E-1,-6.6131665E-3,2.1176916E-3,1.8506125E-2,3.220534E-2,2.344217E-2,8.574769E-2],"categories":[],"categories_nodes":[],"categories_segments":[],"categories_sizes":[],"default_left":[0,0,0,0,0,0,0,0,0,0,0,0,0],"id":20,"left_children":[1,3,5,7,9,11,-1,-1,-1,-1,-1,-1,-1],"loss_changes":[6.17986E2,2.435663E2,5.8902283E1,3.4106007E1,1.1903748E1,1.1728821E0,0E0,0E0,0E0,0E0,0E0,0E0,0E0],"parents":[2147483647,0,0,1,1,2,2,3,3,4,4,5,5],"right_children":[2,4,6,8,10,12,-1,-1,-1,-1,-1,-1,-1],"split_conditions":[2.775555E0,6.840745E-1,6.023698E0,-2.0210809E-1,1.3267807E0,-1.6025716E-1,1.7602855E-1,-6.6131665E-3,2.1176916E-3,1.8506125E-2,3.220534E-2,2.344217E-2,8.574769E-2],"split_indices":[0,0,0,0,0,2,0,0,0,0,0,0,0],"split_type":[0,0,0,0,0,0,0,0,0,0,0,0,0],"sum_hessian":[7.32E3,7.205E3,1.15E2,6.473E3,7.32E2,8.6E1,2.9E1,5.046E3,1.427E3,3.62E2,3.7E2,7E0,7.9E1],"tree_param":{"num_deleted":"0","num_feature":"49","num_nodes":"13","size_leaf_vector":"1"}},{"base_weights":[5.146071E-3,-2.7264211E-2,2.4351835E0,-8.971148E-2,5.097801E-1,8.867016E-2,1.6248867E-1,-5.5284947E-3,6.460376E-3,2.0702358E-2,4.001018E-2],"categories":[],"categories_nodes":[],"categories_segments":[],"categories_sizes":[],"default_left":[0,0,0,0,0,0,0,0,0,0,0],"id":21,"left_children":[1,3,5,7,9,-1,-1,-1,-1,-1,-1],"loss_changes":[5.804178E2,2.4314459E2,1.995874E1,2.974849E1,1.8484741E1,0E0,0E0,0E0,0E0,0E0,0E0],"parents":[2147483647,0,0,1,1,2,2,3,3,4,4],"right_children":[2,4,6,8,10,-1,-1,-1,-1,-1,-1],"split_conditions":[3.417366E0,6.840745E-1,6.023698E0,1.3401471E-1,1.7157164E0,8.867016E-2,1.6248867E-1,-5.5284947E-3,6.460376E-3,2.0702358E-2,4.001018E-2],"split_indices":[0,0,0,0,0,0,0,0,0,0,0],"split_type":[0,0,0,0,0,0,0,0,0,0,0],"sum_hessian":[7.339E3,7.247E3,9.2E1,6.497E3,7.5E2,6E1,3.2E1,5.937E3,5.6E2,5.75E2,1.75E2],"tree_param":{"num_deleted":"0","num_feature":"49","num_nodes":"11","size_leaf_vector":"1"}},{"base_weights":[-8.8795414E-4,-3.7468616E-2,1.5350664E0,-9.987653E-2,3.23703E-1,9.9650544E-1,1.2259885E-1,-7.252943E-3,-2.3760276E-3,9.396988E-3,2.3265101E-2,1.980969E-2,5.504926E-2],"categories":[],"categories_nodes":[],"categories_segments":[],"categories_sizes":[],"default_left":[0,0,0,0,0,0,0,0,0,0,0,0,0],"id":22,"left_children":[1,3,5,7,9,11,-1,-1,-1,-1,-1,-1,-1],"loss_changes":[4.106348E2,1.6132352E2,6.931711E1,1.4279598E1,1.936753E1,4.046524E0,0E0,0E0,0E0,0E0,0E0,0E0,0E0],"parents":[2147483647,0,0,1,1,2,2,3,3,4,4,5,5],"right_children":[2,4,6,8,10,12,-1,-1,-1,-1,-1,-1,-1],"split_conditions":[2.0834672E0,2.6082534E-1,5.328477E0,-3.9784405E-1,9.555985E-1,-1.5706311E-1,1.2259885E-1,-7.252943E-3,-2.3760276E-3,9.396988E-3,2.3265101E-2,1.980969E-2,5.504926E-2],"split_indices":[0,0,0,0,0,1,0,0,0,0,0,0,0],"split_type":[0,0,0,0,0,0,0,0,0,0,0,0,0],"sum_hessian":[7.317E3,7.152E3,1.65E2,6.103E3,1.049E3,1.11E2,5.4E1,3.264E3,2.839E3,5.44E2,5.05E2,2.1E1,9E1],"tree_param":{"num_deleted":"0","num_feature":"49","num_nodes":"13","size_leaf_vector":"1"}},{"base_weights":[3.9275484E-3,-2.6480045E-2,2.2477546E0,-8.3058186E-2,4.3165916E-1,1.586177E0,1.582884E-1,-5.8044717E-3,1.2226677E-3,1.4826789E-2,2.8986687E-2,2.2808854E-2,8.334911E-2],"categories":[],"categories_nodes":[],"categories_segments":[],"categories_sizes":[],"default_left":[0,0,0,0,0,0,0,0,0,0,0,0,0],"id":23,"left_children":[1,3,5,7,9,11,-1,-1,-1,-1,-1,-1,-1],"loss_changes":[5.051806E2,1.8871544E2,3.1692627E1,2.3118797E1,1.4533722E1,9.206543E-1,0E0,0E0,0E0,0E0,0E0,0E0,0E0],"parents":[2147483647,0,0,1,1,2,2,3,3,4,4,5,5],"right_children":[2,4,6,8,10,12,-1,-1,-1,-1,-1,-1,-1],"split_conditions":[3.417366E0,6.163427E-1,6.023698E0,-2.2344212E-1,1.3645256E0,6.827117E-1,1.582884E-1,-5.8044717E-3,1.2226677E-3,1.4826789E-2,2.8986687E-2,2.2808854E-2,8.334911E-2],"split_indices":[0,0,0,0,0,1,0,0,0,0,0,0,0],"split_type":[0,0,0,0,0,0,0,0,0,0,0,0,0],"sum_hessian":[7.372E3,7.278E3,9.4E1,6.483E3,7.95E2,6.3E1,3.1E1,4.964E3,1.519E3,4.26E2,3.69E2,7E0,5.6E1],"tree_param":{"num_deleted":"0","num_feature":"49","num_nodes":"13","size_leaf_vector":"1"}},{"base_weights":[4.655208E-3,-3.2280337E-2,1.5288454E0,-8.6353175E-2,3.2843938E-1,9.5744175E-1,1.212604E-1,-5.838258E-3,-4.9768377E-4,1.0489181E-2,2.2927186E-2,9.946595E-3,5.10687E-2],"categories":[],"categories_nodes":[],"categories_segments":[],"categories_sizes":[],"default_left":[0,0,0,0,0,0,0,0,0,0,0,0,0],"id":24,"left_children":[1,3,5,7,9,11,-1,-1,-1,-1,-1,-1,-1],"loss_changes":[4.1400616E2,1.3966815E2,7.5142334E1,1.4389938E1,1.3454506E1,3.706581E0,0E0,0E0,0E0,0E0,0E0,0E0,0E0],"parents":[2147483647,0,0,1,1,2,2,3,3,4,4,5,5],"right_children":[2,4,6,8,10,12,-1,-1,-1,-1,-1,-1,-1],"split_conditions":[2.0834672E0,3.6063278E-1,5.328477E0,-2.9863337E-1,1.1461128E0,6.6009486E-1,1.212604E-1,-5.838258E-3,-4.9768377E-4,1.0489181E-2,2.2927186E-2,9.946595E-3,5.10687E-2],"split_indices":[0,0,0,0,0,13,0,0,0,0,0,0,0],"split_type":[0,0,0,0,0,0,0,0,0,0,0,0,0],"sum_hessian":[7.326E3,7.157E3,1.69E2,6.229E3,9.28E2,1.1E2,5.9E1,4.447E3,1.782E3,4.95E2,4.33E2,1.1E1,9.9E1],"tree_param":{"num_deleted":"0","num_feature":"49","num_nodes":"13","size_leaf_vector":"1"}},{"base_weights":[5.4786117E-3,-3.0414686E-2,1.4190708E0,-8.566284E-2,2.7979767E-1,9.411909E-1,1.09804325E-1,-6.6700107E-3,-2.234508E-3,8.499317E-3,2.1194145E-2,2.2012359E-2,5.4716796E-2],"categories":[],"categories_nodes":[],"categories_segments":[],"categories_sizes":[],"default_left":[0,0,0,0,0,0,0,0,0,0,0,0,0],"id":25,"left_children":[1,3,5,7,9,11,-1,-1,-1,-1,-1,-1,-1],"loss_changes":[3.7289804E2,1.22508224E2,5.504947E1,1.1725834E1,1.6311981E1,5.876381E0,0E0,0E0,0E0,0E0,0E0,0E0,0E0],"parents":[2147483647,0,0,1,1,2,2,3,3,4,4,5,5],"right_children":[2,4,6,8,10,12,-1,-1,-1,-1,-1,-1,-1],"split_conditions":[2.0834672E0,2.6082534E-1,5.328477E0,-4.2469805E-1,1.0876307E0,1.2197345E0,1.09804325E-1,-6.6700107E-3,-2.234508E-3,8.499317E-3,2.1194145E-2,2.2012359E-2,5.4716796E-2],"split_indices":[0,0,0,0,0,13,0,0,0,0,0,0,0],"split_type":[0,0,0,0,0,0,0,0,0,0,0,0,0],"sum_hessian":[7.321E3,7.144E3,1.77E2,6.069E3,1.075E3,1.17E2,6E1,2.79E3,3.279E3,6.19E2,4.56E2,3.3E1,8.4E1],"tree_param":{"num_deleted":"0","num_feature":"49","num_nodes":"13","size_leaf_vector":"1"}},{"base_weights":[5.3271083E-3,-2.356026E-2,1.6271199E0,-6.7889266E-2,3.9604476E-1,1.2012675E0,1.2896143E-1,-4.5648166E-3,3.6460254E-3,1.5875375E-2,2.7092827E-2,1.1400393E-2,6.634962E-2],"categories":[],"categories_nodes":[],"categories_segments":[],"categories_sizes":[],"default_left":[0,0,0,0,0,0,0,0,0,0,0,0,0],"id":26,"left_children":[1,3,5,7,9,11,-1,-1,-1,-1,-1,-1,-1],"loss_changes":[3.4532877E2,1.3418298E2,3.4166016E1,2.1585144E1,6.4284134E0,9.512619E0,0E0,0E0,0E0,0E0,0E0,0E0,0E0],"parents":[2147483647,0,0,1,1,2,2,3,3,4,4,5,5],"right_children":[2,4,6,8,10,12,-1,-1,-1,-1,-1,-1,-1],"split_conditions":[2.775555E0,7.31815E-1,6.023698E0,-1.0549428E-2,1.5434031E0,-1.5706311E-1,1.2896143E-1,-4.5648166E-3,3.6460254E-3,1.5875375E-2,2.7092827E-2,1.1400393E-2,6.634962E-2],"split_indices":[0,0,0,0,0,1,0,0,0,0,0,0,0],"split_type":[0,0,0,0,0,0,0,0,0,0,0,0,0],"sum_hessian":[7.338E3,7.214E3,1.24E2,6.53E3,6.84E2,9.4E1,3E1,5.605E3,9.25E2,4.58E2,2.26E2,1.3E1,8.1E1],"tree_param":{"num_deleted":"0","num_feature":"49","num_nodes":"13","size_leaf_vector":"1"}},{"base_weights":[3.919509E-3,-5.1146116E-2,6.0604316E-1,-8.336924E-2,9.900108E-2,5.0764817E-1,1.4737059E0,-5.601046E-3,-2.2733093E-3,1.3565042E-3,7.945824E-3,1.7831681E-2,3.1416986E-2,2.5864637E-2,7.8902215E-2],"categories":[],"categories_nodes":[],"categories_segments":[],"categories_sizes":[],"default_left":[0,0,0,0,0,0,0,0,0,0,0,0,0,0,0],"id":27,"left_children":[1,3,5,7,9,11,13,-1,-1,-1,-1,-1,-1,-1,-1],"loss_changes":[2.460991E2,3.2876945E1,4.797487E1,5.941475E0,5.0070133E0,8.524307E0,4.3914795E-1,0E0,0E0,0E0,0E0,0E0,0E0,0E0,0E0],"parents":[2147483647,0,0,1,1,2,2,3,3,4,4,5,5,6,6],"right_children":[2,4,6,8,10,12,14,-1,-1,-1,-1,-1,-1,-1,-1],"split_conditions":[9.0049237E-1,-1.4106366E-1,4.6769166E0,-4.0085307E-1,1.2252682E-1,1.4258E0,2.063795E6,-5.601046E-3,-2.2733093E-3,1.3565042E-3,7.945824E-3,1.7831681E-2,3.1416986E-2,2.5864637E-2,7.8902215E-2],"split_indices":[13,13,13,13,13,13,14,0,0,0,0,0,0,0,0],"split_type":[0,0,0,0,0,0,0,0,0,0,0,0,0,0,0],"sum_hessian":[7.401E3,6.784E3,6.17E2,5.591E3,1.193E3,5.62E2,5.5E1,3.168E3,2.423E3,5.51E2,6.42E2,2.61E2,3.01E2,9E0,4.6E1],"tree_param":{"num_deleted":"0","num_feature":"49","num_nodes":"15","size_leaf_vector":"1"}},{"base_weights":[4.8017623E-3,-2.2694614E-2,1.5410999E0,-6.836177E-2,3.0483752E-1,1.1139678E0,2.4337032E0,-4.7637625E-3,2.3330392E-4,9.474653E-3,2.0422453E-2,1.357011E-2,6.336502E-2,1.508672E-1,6.1863806E-2],"categories":[],"categories_nodes":[],"categories_segments":[],"categories_sizes":[],"default_left":[0,0,0,0,0,0,0,0,0,0,0,0,0,0,0],"id":28,"left_children":[1,3,5,7,9,11,13,-1,-1,-1,-1,-1,-1,-1,-1],"loss_changes":[3.0990466E2,1.073781E2,3.31438E1,1.2467537E1,9.687454E0,9.734856E0,4.191803E0,0E0,0E0,0E0,0E0,0E0,0E0,0E0,0E0],"parents":[2147483647,0,0,1,1,2,2,3,3,4,4,5,5,6,6],"right_children":[2,4,6,8,10,12,14,-1,-1,-1,-1,-1,-1,-1,-1],"split_conditions":[2.775555E0,4.798348E-1,6.023698E0,-2.7461395E-1,1.1931074E0,1.2197345E0,-7.818315E-1,-4.7637625E-3,2.3330392E-4,9.474653E-3,2.0422453E-2,1.357011E-2,6.336502E-2,1.508672E-1,6.1863806E-2],"split_indices":[0,0,0,0,0,13,47,0,0,0,0,0,0,0,0],"split_type":[0,0,0,0,0,0,0,0,0,0,0,0,0,0,0],"sum_hessian":[7.302E3,7.178E3,1.24E2,6.305E3,8.73E2,9.2E1,3.2E1,4.613E3,1.692E3,4.23E2,4.5E2,1.7E1,7.5E1,1.6E1,1.6E1],"tree_param":{"num_deleted":"0","num_feature":"49","num_nodes":"15","size_leaf_vector":"1"}},{"base_weights":[2.4018795E-3,-2.0385621E-2,1.4227294E0,-7.0524864E-2,2.520647E-1,2.5012046E-2,7.7975035E-2,-5.6548E-3,-1.7959381E-3,7.6719406E-3,1.9680392E-2],"categories":[],"categories_nodes":[],"categories_segments":[],"categories_sizes":[],"default_left":[0,0,0,0,0,0,0,0,0,0,0],"id":29,"left_children":[1,3,5,7,9,-1,-1,-1,-1,-1,-1],"loss_changes":[2.3775238E2,9.831707E1,9.293274E0,8.842875E0,1.4922173E1,0E0,0E0,0E0,0E0,0E0,0E0],"parents":[2147483647,0,0,1,1,2,2,3,3,4,4],"right_children":[2,4,6,8,10,-1,-1,-1,-1,-1,-1],"split_conditions":[2.775555E0,2.6082534E-1,1.2197345E0,-4.2768183E-1,1.1931074E0,2.5012046E-2,7.7975035E-2,-5.6548E-3,-1.7959381E-3,7.6719406E-3,1.9680392E-2],"split_indices":[0,0,13,0,0,0,0,0,0,0,0],"split_type":[0,0,0,0,0,0,0,0,0,0,0],"sum_hessian":[7.306E3,7.195E3,1.11E2,6.082E3,1.113E3,1.8E1,9.3E1,2.713E3,3.369E3,6.65E2,4.48E2],"tree_param":{"num_deleted":"0","num_feature":"49","num_nodes":"11","size_leaf_vector":"1"}},{"base_weights":[5.4908064E-3,-1.5895098E-2,1.6948504E0,-6.1433166E-2,2.951779E-1,6.1470944E-2,2.5307775E0,-4.2469776E-3,4.0128577E-4,1.1205017E-2,2.3282709E-2,1.5821768E-1,5.7447385E-2],"categories":[],"categories_nodes":[],"categories_segments":[],"categories_sizes":[],"default_left":[0,0,0,0,0,0,0,0,0,0,0,0,0],"id":30,"left_children":[1,3,5,7,9,-1,11,-1,-1,-1,-1,-1,-1],"loss_changes":[2.6876913E2,1.0354886E2,1.799414E1,1.0485479E1,1.0300606E1,0E0,3.3161469E0,0E0,0E0,0E0,0E0,0E0,0E0],"parents":[2147483647,0,0,1,1,2,2,3,3,4,4,6,6],"right_children":[2,4,6,8,10,-1,12,-1,-1,-1,-1,-1,-1],"split_conditions":[3.417366E0,4.798348E-1,-1.7299865E-1,-2.5089288E-1,1.5434031E0,6.1470944E-2,-6.7434746E-1,-4.2469776E-3,4.0128577E-4,1.1205017E-2,2.3282709E-2,1.5821768E-1,5.7447385E-2],"split_indices":[0,0,3,0,0,0,7,0,0,0,0,0,0],"split_type":[0,0,0,0,0,0,0,0,0,0,0,0,0],"sum_hessian":[7.398E3,7.31E3,8.8E1,6.382E3,9.28E2,6.5E1,2.3E1,4.775E3,1.607E3,6.66E2,2.62E2,1.1E1,1.2E1],"tree_param":{"num_deleted":"0","num_feature":"49","num_nodes":"13","size_leaf_vector":"1"}},{"base_weights":[1.5208281E-3,-4.520576E-2,5.037624E-1,-7.017067E-2,8.069481E-2,3.9476854E-1,1.1608536E0,-4.6915337E-3,-1.923209E-3,1.0692434E-3,6.3839303E-3,1.4209904E-2,2.3461742E-2,4.0273618E-2,9.64376E-2],"categories":[],"categories_nodes":[],"categories_segments":[],"categories_sizes":[],"default_left":[0,0,0,0,0,0,0,0,0,0,0,0,0,0,0],"id":31,"left_children":[1,3,5,7,9,11,13,-1,-1,-1,-1,-1,-1,-1,-1],"loss_changes":[1.733943E2,2.1224277E1,4.1668015E1,4.1180897E0,2.9862823E0,3.3179245E0,1.3787392E1,0E0,0E0,0E0,0E0,0E0,0E0,0E0,0E0],"parents":[2147483647,0,0,1,1,2,2,3,3,4,4,5,5,6,6],"right_children":[2,4,6,8,10,12,14,-1,-1,-1,-1,-1,-1,-1,-1],"split_conditions":[8.519461E-1,-1.2064015E-1,2.7943318E0,-4.0085307E-1,1.2252682E-1,1.3220403E0,1.2864991E-2,-4.6915337E-3,-1.923209E-3,1.0692434E-3,6.3839303E-3,1.4209904E-2,2.3461742E-2,4.0273618E-2,9.64376E-2],"split_indices":[13,13,13,13,13,13,5,0,0,0,0,0,0,0,0],"split_type":[0,0,0,0,0,0,0,0,0,0,0,0,0,0,0],"sum_hessian":[7.365E3,6.741E3,6.24E2,5.632E3,1.109E3,5.43E2,8.1E1,3.207E3,2.425E3,5E2,6.09E2,2.32E2,3.11E2,6.3E1,1.8E1],"tree_param":{"num_deleted":"0","num_feature":"49","num_nodes":"15","size_leaf_vector":"1"}},{"base_weights":[2.5903247E-3,-1.7375773E-2,1.496633E0,-6.277562E-2,2.243255E-1,5.510316E-2,1.1235844E-1,-4.9122847E-3,-1.6143954E-3,7.7859485E-3,2.0417765E-2],"categories":[],"categories_nodes":[],"categories_segments":[],"categories_sizes":[],"default_left":[0,0,0,0,0,0,0,0,0,0,0],"id":32,"left_children":[1,3,5,7,9,-1,-1,-1,-1,-1,-1],"loss_changes":[2.1940326E2,7.922772E1,1.3998383E1,6.4763355E0,1.3693066E1,0E0,0E0,0E0,0E0,0E0,0E0],"parents":[2147483647,0,0,1,1,2,2,3,3,4,4],"right_children":[2,4,6,8,10,-1,-1,-1,-1,-1,-1],"split_conditions":[3.417366E0,2.302416E-1,-1.7299865E-1,-4.2469805E-1,1.4534421E0,5.510316E-2,1.1235844E-1,-4.9122847E-3,-1.6143954E-3,7.7859485E-3,2.0417765E-2],"split_indices":[0,0,3,0,0,0,0,0,0,0,0],"split_type":[0,0,0,0,0,0,0,0,0,0,0],"sum_hessian":[7.311E3,7.219E3,9.2E1,6.083E3,1.136E3,6.9E1,2.3E1,2.796E3,3.287E3,8.37E2,2.99E2],"tree_param":{"num_deleted":"0","num_feature":"49","num_nodes":"11","size_leaf_vector":"1"}},{"base_weights":[4.006316E-3,-1.715429E-2,1.2414126E0,-5.935566E-2,2.0451987E-1,8.8068646E-1,1.9814256E0,-4.686877E-3,-1.5266682E-3,5.839478E-3,1.5332738E-2,-0E0,4.6698544E-2,1.3807361E-1,5.6171615E-2],"categories":[],"categories_nodes":[],"categories_segments":[],"categories_sizes":[],"default_left":[0,0,0,0,0,0,0,0,0,0,0,0,0,0,0],"id":33,"left_children":[1,3,5,7,9,11,13,-1,-1,-1,-1,-1,-1,-1,-1],"loss_changes":[1.9310359E2,6.749249E1,2.2372269E1,5.9148464E0,9.85577E0,3.7586288E0,5.862808E0,0E0,0E0,0E0,0E0,0E0,0E0,0E0,0E0],"parents":[2147483647,0,0,1,1,2,2,3,3,4,4,5,5,6,6],"right_children":[2,4,6,8,10,12,14,-1,-1,-1,-1,-1,-1,-1,-1],"split_conditions":[2.775555E0,2.302416E-1,6.023698E0,-4.2768183E-1,1.0876307E0,-4.9941555E-1,9.26179E-1,-4.686877E-3,-1.5266682E-3,5.839478E-3,1.5332738E-2,-0E0,4.6698544E-2,1.3807361E-1,5.6171615E-2],"split_indices":[0,0,0,0,0,1,1,0,0,0,0,0,0,0,0],"split_type":[0,0,0,0,0,0,0,0,0,0,0,0,0,0,0],"sum_hessian":[7.333E3,7.214E3,1.19E2,6.066E3,1.148E3,8.8E1,3.1E1,2.75E3,3.316E3,6.27E2,5.21E2,6E0,8.2E1,1E1,2.1E1],"tree_param":{"num_deleted":"0","num_feature":"49","num_nodes":"15","size_leaf_vector":"1"}},{"base_weights":[4.461857E-3,-1.3386684E-2,1.4278278E0,-4.734675E-2,2.7632314E-1,4.6747204E-2,2.2508674E0,-3.3534472E-3,1.6901098E-3,1.1591651E-2,2.494265E-2,1.4306268E-1,5.0513096E-2],"categories":[],"categories_nodes":[],"categories_segments":[],"categories_sizes":[],"default_left":[0,0,0,0,0,0,0,0,0,0,0,0,0],"id":34,"left_children":[1,3,5,7,9,-1,11,-1,-1,-1,-1,-1,-1],"loss_changes":[1.8666925E2,7.0929726E1,2.416307E1,1.0386238E1,6.3949547E0,0E0,5.5543213E0,0E0,0E0,0E0,0E0,0E0,0E0],"parents":[2147483647,0,0,1,1,2,2,3,3,4,4,6,6],"right_children":[2,4,6,8,10,-1,12,-1,-1,-1,-1,-1,-1],"split_conditions":[3.417366E0,6.840745E-1,-1.7299865E-1,-1.666011E-1,1.9384556E0,4.6747204E-2,-6.509173E-1,-3.3534472E-3,1.6901098E-3,1.1591651E-2,2.494265E-2,1.4306268E-1,5.0513096E-2],"split_indices":[0,0,3,0,0,0,7,0,0,0,0,0,0],"split_type":[0,0,0,0,0,0,0,0,0,0,0,0,0],"sum_hessian":[7.3E3,7.214E3,8.6E1,6.463E3,7.51E2,6.1E1,2.5E1,5.207E3,1.256E3,6.37E2,1.14E2,1.2E1,1.3E1],"tree_param":{"num_deleted":"0","num_feature":"49","num_nodes":"13","size_leaf_vector":"1"}},{"base_weights":[1.8788842E-3,-2.0824287E-2,9.663546E-1,-5.6644384E-2,1.4998965E-1,6.791522E-1,1.9653192E0,-4.455515E-3,-1.6703444E-3,3.6412296E-3,1.1421892E-2,2.6872475E-3,3.8430568E-2,1.267955E-1,5.0999533E-2],"categories":[],"categories_nodes":[],"categories_segments":[],"categories_sizes":[],"default_left":[0,0,0,0,0,0,0,0,0,0,0,0,0,0,0],"id":35,"left_children":[1,3,5,7,9,11,13,-1,-1,-1,-1,-1,-1,-1,-1],"loss_changes":[1.6279774E2,4.423889E1,4.0535873E1,4.4161053E0,7.2848682E0,7.106514E0,3.4566956E0,0E0,0E0,0E0,0E0,0E0,0E0,0E0,0E0],"parents":[2147483647,0,0,1,1,2,2,3,3,4,4,5,5,6,6],"right_children":[2,4,6,8,10,12,14,-1,-1,-1,-1,-1,-1,-1,-1],"split_conditions":[2.0834672E0,1.3401471E-1,6.023698E0,-4.4812074E-1,7.882084E-1,7.232814E-1,1.2057917E0,-4.455515E-3,-1.6703444E-3,3.6412296E-3,1.1421892E-2,2.6872475E-3,3.8430568E-2,1.267955E-1,5.0999533E-2],"split_indices":[0,0,0,0,0,13,1,0,0,0,0,0,0,0,0],"split_type":[0,0,0,0,0,0,0,0,0,0,0,0,0,0,0],"sum_hessian":[7.395E3,7.229E3,1.66E2,5.982E3,1.247E3,1.36E2,3E1,2.477E3,3.505E3,6.38E2,6.09E2,1.9E1,1.17E2,1.3E1,1.7E1],"tree_param":{"num_deleted":"0","num_feature":"49","num_nodes":"15","size_leaf_vector":"1"}},{"base_weights":[2.8536147E-3,-1.7916704E-2,8.7848836E-1,-5.3730685E-2,1.4531492E-1,6.5408814E-1,1.8403637E0,-4.2663515E-3,-1.5590332E-3,3.6990736E-3,1.1075608E-2,6.4761E-3,3.6541026E-2,1.00811146E-1,2.1406008E-2],"categories":[],"categories_nodes":[],"categories_segments":[],"categories_sizes":[],"default_left":[0,0,0,0,0,0,0,0,0,0,0,0,0,0,0],"id":36,"left_children":[1,3,5,7,9,11,13,-1,-1,-1,-1,-1,-1,-1,-1],"loss_changes":[1.3421162E2,4.1925644E1,2.9144577E1,4.103182E0,6.7174606E0,4.8414E0,1.1753616E0,0E0,0E0,0E0,0E0,0E0,0E0,0E0,0E0],"parents":[2147483647,0,0,1,1,2,2,3,3,4,4,5,5,6,6],"right_children":[2,4,6,8,10,12,14,-1,-1,-1,-1,-1,-1,-1,-1],"split_conditions":[2.0834672E0,1.232731E-1,6.023698E0,-4.4812074E-1,7.882084E-1,-1.5706311E-1,4.3388373E-1,-4.2663515E-3,-1.5590332E-3,3.6990736E-3,1.1075608E-2,6.4761E-3,3.6541026E-2,1.00811146E-1,2.1406008E-2],"split_indices":[0,0,0,0,0,1,47,0,0,0,0,0,0,0,0],"split_type":[0,0,0,0,0,0,0,0,0,0,0,0,0,0,0],"sum_hessian":[7.337E3,7.171E3,1.66E2,5.887E3,1.284E3,1.42E2,2.4E1,2.433E3,3.454E3,6.73E2,6.11E2,2.1E1,1.21E2,1.9E1,5E0],"tree_param":{"num_deleted":"0","num_feature":"49","num_nodes":"15","size_leaf_vector":"1"}},{"base_weights":[3.12854E-3,-1.2495931E-2,1.2426927E0,-3.9472174E-2,2.446763E-1,8.539418E-1,1.9537765E0,-2.765371E-3,1.989748E-3,1.3919559E-4,1.3461753E-2,2.0699667E-2,5.004698E-2,1.2495583E-1,4.5886092E-2],"categories":[],"categories_nodes":[],"categories_segments":[],"categories_sizes":[],"default_left":[0,0,0,0,0,0,0,0,0,0,0,0,0,0,0],"id":37,"left_children":[1,3,5,7,9,11,13,-1,-1,-1,-1,-1,-1,-1,-1],"loss_changes":[1.4313521E2,5.0236507E1,1.5124512E1,8.272388E0,3.8870087E0,1.399971E0,1.9608002E0,0E0,0E0,0E0,0E0,0E0,0E0,0E0,0E0],"parents":[2147483647,0,0,1,1,2,2,3,3,4,4,5,5,6,6],"right_children":[2,4,6,8,10,12,14,-1,-1,-1,-1,-1,-1,-1,-1],"split_conditions":[3.417366E0,7.882084E-1,-1.7299865E-1,-7.7087715E-2,-1.3608748E-1,5.328477E0,1.0436051E0,-2.765371E-3,1.989748E-3,1.3919559E-4,1.3461753E-2,2.0699667E-2,5.004698E-2,1.2495583E-1,4.5886092E-2],"split_indices":[0,0,3,0,1,0,1,0,0,0,0,0,0,0,0],"split_type":[0,0,0,0,0,0,0,0,0,0,0,0,0,0,0],"sum_hessian":[7.337E3,7.25E3,8.7E1,6.568E3,6.82E2,6.4E1,2.3E1,5.483E3,1.085E3,6.6E1,6.16E2,2.2E1,4.2E1,1E1,1.3E1],"tree_param":{"num_deleted":"0","num_feature":"49","num_nodes":"15","size_leaf_vector":"1"}},{"base_weights":[3.4328846E-3,-1.1121691E-2,1.2842208E0,-3.7650824E-2,2.3278601E-1,8.129646E-1,2.2441912E0,-2.703422E-3,1.694713E-3,7.6833675E-3,1.6564198E-2,2.698659E-3,4.3042377E-2,1.3746937E-1,4.257063E-2],"categories":[],"categories_nodes":[],"categories_segments":[],"categories_sizes":[],"default_left":[0,0,0,0,0,0,0,0,0,0,0,0,0,0,0],"id":38,"left_children":[1,3,5,7,9,11,13,-1,-1,-1,-1,-1,-1,-1,-1],"loss_changes":[1.376967E2,4.6864807E1,2.628627E1,7.719263E0,4.939041E0,1.4532509E0,2.6621628E0,0E0,0E0,0E0,0E0,0E0,0E0,0E0,0E0],"parents":[2147483647,0,0,1,1,2,2,3,3,4,4,5,5,6,6],"right_children":[2,4,6,8,10,12,14,-1,-1,-1,-1,-1,-1,-1,-1],"split_conditions":[3.417366E0,7.31815E-1,-1.7299865E-1,-1.4437196E-1,1.2197345E0,6.827117E-1,-6.7434746E-1,-2.703422E-3,1.694713E-3,7.6833675E-3,1.6564198E-2,2.698659E-3,4.3042377E-2,1.3746937E-1,4.257063E-2],"split_indices":[0,0,3,0,13,1,7,0,0,0,0,0,0,0,0],"split_type":[0,0,0,0,0,0,0,0,0,0,0,0,0,0,0],"sum_hessian":[7.33E3,7.252E3,7.8E1,6.547E3,7.05E2,5.9E1,1.9E1,5.334E3,1.213E3,4.02E2,3.03E2,5E0,5.4E1,1E1,9E0],"tree_param":{"num_deleted":"0","num_feature":"49","num_nodes":"15","size_leaf_vector":"1"}},{"base_weights":[1.6691596E-3,-1.6247641E-2,7.483705E-1,-4.5371443E-2,1.2887253E-1,4.8967284E-1,1.1860956E0,-3.5683964E-3,-1.0468506E-3,4.1014436E-3,1.09871095E-2,4.7651018E-4,2.7916629E-2,4.5801993E-2,9.422513E-2],"categories":[],"categories_nodes":[],"categories_segments":[],"categories_sizes":[],"default_left":[0,0,0,0,0,0,0,0,0,0,0,0,0,0,0],"id":39,"left_children":[1,3,5,7,9,11,13,-1,-1,-1,-1,-1,-1,-1,-1],"loss_changes":[9.762092E1,2.9927868E1,1.5286743E1,3.6826382E0,4.730015E0,3.4329662E0,5.361481E-1,0E0,0E0,0E0,0E0,0E0,0E0,0E0,0E0],"parents":[2147483647,0,0,1,1,2,2,3,3,4,4,5,5,6,6],"right_children":[2,4,6,8,10,12,14,-1,-1,-1,-1,-1,-1,-1,-1],"split_conditions":[2.0834672E0,1.5266334E-1,5.328477E0,-4.1813374E-1,1.1931074E0,7.232814E-1,2.6893735E0,-3.5683964E-3,-1.0468506E-3,4.1014436E-3,1.09871095E-2,4.7651018E-4,2.7916629E-2,4.5801993E-2,9.422513E-2],"split_indices":[0,0,0,0,0,13,4,0,0,0,0,0,0,0,0],"split_type":[0,0,0,0,0,0,0,0,0,0,0,0,0,0,0],"sum_hessian":[7.249E3,7.083E3,1.66E2,5.906E3,1.177E3,1.12E2,5.4E1,2.843E3,3.063E3,7.88E2,3.89E2,1.6E1,9.6E1,4.8E1,6E0],"tree_param":{"num_deleted":"0","num_feature":"49","num_nodes":"15","size_leaf_vector":"1"}},{"base_weights":[3.3456797E-3,-1.0390972E-2,1.1057106E0,-3.481273E-2,1.9972257E-1,7.428177E-1,1.8024163E0,-2.5568402E-3,1.0744708E-3,6.8504848E-3,1.5402304E-2,3.921296E-2,1.8091694E-3,1.1197299E-1,3.7918393E-2],"categories":[],"categories_nodes":[],"categories_segments":[],"categories_sizes":[],"default_left":[0,0,0,0,0,0,0,0,0,0,0,0,0,0,0],"id":40,"left_children":[1,3,5,7,9,11,13,-1,-1,-1,-1,-1,-1,-1,-1],"loss_changes":[1.119572E2,3.713695E1,1.4531494E1,6.004865E0,4.5927734E0,1.3043976E0,1.729805E0,0E0,0E0,0E0,0E0,0E0,0E0,0E0,0E0],"parents":[2147483647,0,0,1,1,2,2,3,3,4,4,5,5,6,6],"right_children":[2,4,6,8,10,12,14,-1,-1,-1,-1,-1,-1,-1,-1],"split_conditions":[3.417366E0,6.840745E-1,-1.9087857E-1,-2.0210809E-1,1.5434031E0,1E0,-6.509173E-1,-2.5568402E-3,1.0744708E-3,6.8504848E-3,1.5402304E-2,3.921296E-2,1.8091694E-3,1.1197299E-1,3.7918393E-2],"split_indices":[0,0,4,0,0,34,7,0,0,0,0,0,0,0,0],"split_type":[0,0,0,0,0,0,0,0,0,0,0,0,0,0,0],"sum_hessian":[7.334E3,7.248E3,8.6E1,6.5E3,7.48E2,6.4E1,2.2E1,5.049E3,1.451E3,4.85E2,2.63E2,5.9E1,5E0,1.1E1,1.1E1],"tree_param":{"num_deleted":"0","num_feature":"49","num_nodes":"15","size_leaf_vector":"1"}},{"base_weights":[4.1144025E-3,-2.211507E-2,4.1101685E-1,-3.852062E-2,9.5307335E-2,3.3888662E-1,1.1699955E0,-2.6639956E-3,-3.4739445E-5,-0E0,5.4709753E-3,1.98789E-3,1.7987622E-2,8.453586E-2,1.8108325E-2],"categories":[],"categories_nodes":[],"categories_segments":[],"categories_sizes":[],"default_left":[0,0,0,0,0,1,0,0,0,0,0,0,0,0,0],"id":41,"left_children":[1,3,5,7,9,11,13,-1,-1,-1,-1,-1,-1,-1,-1],"loss_changes":[7.894447E1,1.3316855E1,2.1487213E1,3.3586226E0,1.1482782E0,2.2515602E0,1.064492E1,0E0,0E0,0E0,0E0,0E0,0E0,0E0,0E0],"parents":[2147483647,0,0,1,1,2,2,3,3,4,4,5,5,6,6],"right_children":[2,4,6,8,10,12,14,-1,-1,-1,-1,-1,-1,-1,-1],"split_conditions":[1.2197345E0,1.0093802E-1,5.796967E0,-3.069863E-1,2.022E3,-8.9089173E-1,-7.818315E-1,-2.6639956E-3,-3.4739445E-5,-0E0,5.4709753E-3,1.98789E-3,1.7987622E-2,8.453586E-2,1.8108325E-2],"split_indices":[13,13,13,13,8,16,47,0,0,0,0,0,0,0,0],"split_type":[0,0,0,0,0,0,0,0,0,0,0,0,0,0,0],"sum_hessian":[7.362E3,6.919E3,4.43E2,6.079E3,8.4E2,4.12E2,3.1E1,4.358E3,1.721E3,1.08E2,7.32E2,3E1,3.82E2,1.5E1,1.6E1],"tree_param":{"num_deleted":"0","num_feature":"49","num_nodes":"15","size_leaf_vector":"1"}},{"base_weights":[4.353406E-3,-1.1345725E-2,9.55093E-1,-3.7981015E-2,1.2688431E-1,6.5123314E-1,1.7348003E0,-3.656376E-3,-1.0968875E-3,4.16762E-3,1.09932935E-2,3.617456E-2,1.4670773E-2,4.0489946E-2,1.17160104E-1],"categories":[],"categories_nodes":[],"categories_segments":[],"categories_sizes":[],"default_left":[0,0,0,0,0,0,0,0,0,0,0,0,0,0,0],"id":42,"left_children":[1,3,5,7,9,11,13,-1,-1,-1,-1,-1,-1,-1,-1],"loss_changes":[1.1025514E2,2.6559168E1,2.111158E1,3.345272E0,4.4075947E0,6.82991E-1,5.1884613E0,0E0,0E0,0E0,0E0,0E0,0E0,0E0,0E0],"parents":[2147483647,0,0,1,1,2,2,3,3,4,4,5,5,6,6],"right_children":[2,4,6,8,10,12,14,-1,-1,-1,-1,-1,-1,-1,-1],"split_conditions":[2.775555E0,2.302416E-1,7.570522E-1,-4.785553E-1,1.3267807E0,3.395951E-2,4.6769166E0,-3.656376E-3,-1.0968875E-3,4.16762E-3,1.09932935E-2,3.617456E-2,1.4670773E-2,4.0489946E-2,1.17160104E-1],"split_indices":[0,0,4,0,0,6,13,0,0,0,0,0,0,0,0],"split_type":[0,0,0,0,0,0,0,0,0,0,0,0,0,0,0],"sum_hessian":[7.334E3,7.219E3,1.15E2,6.06E3,1.159E3,9E1,2.5E1,1.88E3,4.18E3,8.01E2,3.58E2,6.9E1,2.1E1,1.5E1,1E1],"tree_param":{"num_deleted":"0","num_feature":"49","num_nodes":"15","size_leaf_vector":"1"}},{"base_weights":[3.8213283E-3,-8.350946E-3,1.0060424E0,-3.0635068E-2,1.6949295E-1,6.636725E-1,1.8137838E0,-2.6365395E-3,5.867531E-5,6.6951066E-3,1.8187663E-2,3.515897E-2,5.905281E-3,1.12343565E-1,3.414582E-2],"categories":[],"categories_nodes":[],"categories_segments":[],"categories_sizes":[],"default_left":[0,0,0,0,0,0,0,0,0,0,0,0,0,0,0],"id":43,"left_children":[1,3,5,7,9,11,13,-1,-1,-1,-1,-1,-1,-1,-1],"loss_changes":[9.0478516E1,2.874839E1,1.6859612E1,4.58373E0,4.98761E0,5.4016113E-1,1.5416031E0,0E0,0E0,0E0,0E0,0E0,0E0,0E0,0E0],"parents":[2147483647,0,0,1,1,2,2,3,3,4,4,5,5,6,6],"right_children":[2,4,6,8,10,12,14,-1,-1,-1,-1,-1,-1,-1,-1],"split_conditions":[3.417366E0,6.163427E-1,-1.7299865E-1,-3.498052E-1,1.9384556E0,-1.6025639E-1,1.2057917E0,-2.6365395E-3,5.867531E-5,6.6951066E-3,1.8187663E-2,3.515897E-2,5.905281E-3,1.12343565E-1,3.414582E-2],"split_indices":[0,0,3,0,0,2,1,0,0,0,0,0,0,0,0],"split_type":[0,0,0,0,0,0,0,0,0,0,0,0,0,0,0],"sum_hessian":[7.351E3,7.267E3,8.4E1,6.465E3,8.02E2,6.6E1,1.8E1,3.826E3,2.639E3,6.88E2,1.14E2,5.9E1,7E0,9E0,9E0],"tree_param":{"num_deleted":"0","num_feature":"49","num_nodes":"15","size_leaf_vector":"1"}},{"base_weights":[2.8333934E-3,-2.4035936E-2,3.0176678E-1,-3.7416372E-2,4.369473E-2,2.4766995E-1,1.2183174E0,-2.6731864E-3,-9.26286E-4,3.5657485E-3,6.4255495E-4,5.8022435E-3,1.4535717E-2,2.3090769E-2,9.375406E-2],"categories":[],"categories_nodes":[],"categories_segments":[],"categories_sizes":[],"default_left":[0,0,0,0,0,0,0,0,0,0,0,0,0,0,0],"id":44,"left_children":[1,3,5,7,9,11,13,-1,-1,-1,-1,-1,-1,-1,-1],"loss_changes":[5.9395416E1,6.1310434E0,2.7710419E1,1.6595459E0,8.812678E-1,2.8497047E0,9.933449E0,0E0,0E0,0E0,0E0,0E0,0E0,0E0,0E0],"parents":[2147483647,0,0,1,1,2,2,3,3,4,4,5,5,6,6],"right_children":[2,4,6,8,10,12,14,-1,-1,-1,-1,-1,-1,-1,-1],"split_conditions":[9.0049237E-1,-1.2064015E-1,5.796967E0,-4.091121E-1,-1.729994E-1,2.063795E6,1.6509162E0,-2.6731864E-3,-9.26286E-4,3.5657485E-3,6.4255495E-4,5.8022435E-3,1.4535717E-2,2.3090769E-2,9.375406E-2],"split_indices":[13,13,13,13,3,14,5,0,0,0,0,0,0,0,0],"split_type":[0,0,0,0,0,0,0,0,0,0,0,0,0,0,0],"sum_hessian":[7.361E3,6.756E3,6.05E2,5.652E3,1.104E3,5.78E2,2.7E1,3.031E3,2.621E3,5.67E2,5.37E2,1.51E2,4.27E2,1.7E1,1E1],"tree_param":{"num_deleted":"0","num_feature":"49","num_nodes":"15","size_leaf_vector":"1"}},{"base_weights":[2.87842E-3,-1.0807595E-2,8.5885555E-1,-3.4650926E-2,9.668684E-2,5.7087547E-1,1.4754606E0,-3.223215E-3,-1.0270331E-3,3.4950997E-3,1.0924471E-2,7.5653795E-4,3.1218488E-2,1.0010872E-1,3.3222E-2],"categories":[],"categories_nodes":[],"categories_segments":[],"categories_sizes":[],"default_left":[0,0,0,0,0,0,0,0,0,0,0,0,0,0,0],"id":45,"left_children":[1,3,5,7,9,11,13,-1,-1,-1,-1,-1,-1,-1,-1],"loss_changes":[8.6346375E1,1.8439924E1,1.4954163E1,2.4183798E0,3.976015E0,2.1212807E0,5.5785446E0,0E0,0E0,0E0,0E0,0E0,0E0,0E0,0E0],"parents":[2147483647,0,0,1,1,2,2,3,3,4,4,5,5,6,6],"right_children":[2,4,6,8,10,12,14,-1,-1,-1,-1,-1,-1,-1,-1],"split_conditions":[2.775555E0,1.232731E-1,6.023698E0,-4.785553E-1,1.5434031E0,-5.7990663E-2,1.2057917E0,-3.223215E-3,-1.0270331E-3,3.4950997E-3,1.0924471E-2,7.5653795E-4,3.1218488E-2,1.0010872E-1,3.3222E-2],"split_indices":[0,0,0,0,0,1,1,0,0,0,0,0,0,0,0],"split_type":[0,0,0,0,0,0,0,0,0,0,0,0,0,0,0],"sum_hessian":[7.311E3,7.2E3,1.11E2,5.901E3,1.299E3,8.3E1,2.8E1,1.874E3,4.027E3,1.076E3,2.23E2,9E0,7.4E1,1.2E1,1.6E1],"tree_param":{"num_deleted":"0","num_feature":"49","num_nodes":"15","size_leaf_vector":"1"}},{"base_weights":[2.7162659E-3,-2.1622889E-2,2.7594456E-1,-4.0042873E-2,2.1853693E-2,2.1639766E-1,8.150782E-1,-2.8661487E-3,-1.4739198E-3,1.3003212E-4,3.075008E-3,6.2058754E-3,1.2774281E-2,7.971363E-2,2.0729806E-2],"categories":[],"categories_nodes":[],"categories_segments":[],"categories_sizes":[],"default_left":[0,0,0,0,0,0,0,0,0,0,0,0,0,0,0],"id":46,"left_children":[1,3,5,7,9,11,13,-1,-1,-1,-1,-1,-1,-1,-1],"loss_changes":[4.9013275E1,5.415557E0,1.7754612E1,7.975626E-1,1.4794343E0,1.5632076E0,1.3075935E1,0E0,0E0,0E0,0E0,0E0,0E0,0E0,0E0],"parents":[2147483647,0,0,1,1,2,2,3,3,4,4,5,5,6,6],"right_children":[2,4,6,8,10,12,14,-1,-1,-1,-1,-1,-1,-1,-1],"split_conditions":[9.0049237E-1,-2.704016E-1,4.6769166E0,-4.528405E-1,1.0093802E-1,2.398871E6,1.2057917E0,-2.8661487E-3,-1.4739198E-3,1.3003212E-4,3.075008E-3,6.2058754E-3,1.2774281E-2,7.971363E-2,2.0729806E-2],"split_indices":[13,13,13,13,13,14,1,0,0,0,0,0,0,0,0],"split_type":[0,0,0,0,0,0,0,0,0,0,0,0,0,0,0],"sum_hessian":[7.334E3,6.736E3,5.98E2,4.743E3,1.993E3,5.46E2,5.2E1,1.766E3,2.977E3,1.357E3,6.36E2,1.74E2,3.72E2,1.2E1,4E1],"tree_param":{"num_deleted":"0","num_feature":"49","num_nodes":"15","size_leaf_vector":"1"}},{"base_weights":[4.49784E-3,-1.6151577E-2,3.248985E-1,-2.8258309E-2,7.541084E-2,2.457819E-1,1.0690182E0,-2.0132486E-3,4.9816394E-5,8.5943155E-3,2.7478735E-3,1.45057095E-2,5.413463E-3,8.5632265E-2,1.9610161E-2],"categories":[],"categories_nodes":[],"categories_segments":[],"categories_sizes":[],"default_left":[0,0,0,0,0,0,0,0,0,0,0,0,0,0,0],"id":47,"left_children":[1,3,5,7,9,11,13,-1,-1,-1,-1,-1,-1,-1,-1],"loss_changes":[4.9274185E1,7.698502E0,2.4317291E1,2.1920943E0,1.3883619E0,2.0940228E0,1.3028358E1,0E0,0E0,0E0,0E0,0E0,0E0,0E0,0E0],"parents":[2147483647,0,0,1,1,2,2,3,3,4,4,5,5,6,6],"right_children":[2,4,6,8,10,12,14,-1,-1,-1,-1,-1,-1,-1,-1],"split_conditions":[1.2197345E0,1.2252682E-1,1.0246001E0,-3.069863E-1,-4.2060632E-1,-1.3009381E-1,-7.818315E-1,-2.0132486E-3,4.9816394E-5,8.5943155E-3,2.7478735E-3,1.45057095E-2,5.413463E-3,8.5632265E-2,1.9610161E-2],"split_indices":[13,13,5,13,6,10,47,0,0,0,0,0,0,0,0],"split_type":[0,0,0,0,0,0,0,0,0,0,0,0,0,0,0],"sum_hessian":[7.406E3,6.96E3,4.46E2,6.157E3,8.03E2,4.1E2,3.6E1,4.381E3,1.776E3,1.28E2,6.75E2,3.02E2,1.08E2,1.4E1,2.2E1],"tree_param":{"num_deleted":"0","num_feature":"49","num_nodes":"15","size_leaf_vector":"1"}},{"base_weights":[2.863631E-3,-1.5393719E-2,2.949205E-1,-2.8884238E-2,6.352738E-2,2.3403321E-1,8.1867415E-1,-2.1436575E-3,-5.4715626E-4,1.459509E-3,4.8357598E-3,1.3669717E-2,5.080718E-3,6.489144E-3,5.574722E-2],"categories":[],"categories_nodes":[],"categories_segments":[],"categories_sizes":[],"default_left":[0,0,0,0,0,0,0,0,0,0,0,0,0,0,0],"id":48,"left_children":[1,3,5,7,9,11,13,-1,-1,-1,-1,-1,-1,-1,-1],"loss_changes":[3.932461E1,7.336585E0,1.2145351E1,1.4427528E0,1.0396061E0,1.6678162E0,6.9772987E0,0E0,0E0,0E0,0E0,0E0,0E0,0E0,0E0],"parents":[2147483647,0,0,1,1,2,2,3,3,4,4,5,5,6,6],"right_children":[2,4,6,8,10,12,14,-1,-1,-1,-1,-1,-1,-1,-1],"split_conditions":[1.2197345E0,2.3937995E-2,1.0246001E0,-3.9507064E-1,-7.2901785E-1,-1.3009381E-1,1.5730674E0,-2.1436575E-3,-5.4715626E-4,1.459509E-3,4.8357598E-3,1.3669717E-2,5.080718E-3,6.489144E-3,5.574722E-2],"split_indices":[13,13,5,13,7,10,13,0,0,0,0,0,0,0,0],"split_type":[0,0,0,0,0,0,0,0,0,0,0,0,0,0,0],"sum_hessian":[7.329E3,6.9E3,4.29E2,5.903E3,9.97E2,3.92E2,3.7E1,3.291E3,2.612E3,5.05E2,4.92E2,2.94E2,9.8E1,1.4E1,2.3E1],"tree_param":{"num_deleted":"0","num_feature":"49","num_nodes":"15","size_leaf_vector":"1"}},{"base_weights":[1.6545253E-3,-1.075857E-2,6.233131E-1,-2.59317E-2,9.696911E-2,4.3982273E-1,1.2045645E0,-2.7572608E-3,-6.5090664E-4,5.581844E-4,6.4409687E-3,-0E0,2.6713511E-2,8.5486926E-2,3.1336736E-2],"categories":[],"categories_nodes":[],"categories_segments":[],"categories_sizes":[],"default_left":[0,0,0,0,0,0,0,0,0,0,0,0,0,0,0],"id":49,"left_children":[1,3,5,7,9,11,13,-1,-1,-1,-1,-1,-1,-1,-1],"loss_changes":[5.7149254E1,1.17415285E1,1.16647835E1,2.335184E0,2.3134594E0,4.953741E0,2.0557518E0,0E0,0E0,0E0,0E0,0E0,0E0,0E0,0E0],"parents":[2147483647,0,0,1,1,2,2,3,3,4,4,5,5,6,6],"right_children":[2,4,6,8,10,12,14,-1,-1,-1,-1,-1,-1,-1,-1],"split_conditions":[2.2581675E0,4.5268238E-1,6.023698E0,-4.7691423E-1,1.9502802E-1,4.557657E-2,9.829256E-1,-2.7572608E-3,-6.5090664E-4,5.581844E-4,6.4409687E-3,-0E0,2.6713511E-2,8.5486926E-2,3.1336736E-2],"split_indices":[0,0,0,0,1,1,1,0,0,0,0,0,0,0,0],"split_type":[0,0,0,0,0,0,0,0,0,0,0,0,0,0,0],"sum_hessian":[7.341E3,7.201E3,1.4E2,6.321E3,8.8E2,1.14E2,2.6E1,1.916E3,4.405E3,2.46E2,6.34E2,2.1E1,9.3E1,8E0,1.8E1],"tree_param":{"num_deleted":"0","num_feature":"49","num_nodes":"15","size_leaf_vector":"1"}},{"base_weights":[1.8719373E-3,-6.3421484E-3,9.9484444E-1,-2.2900961E-2,1.3516252E-1,6.3576716E-1,8.81161E-2,-1.9576254E-3,-8.942262E-6,4.9133147E-3,1.4045902E-2,3.3452835E-2,4.90405E-3],"categories":[],"categories_nodes":[],"categories_segments":[],"categories_sizes":[],"default_left":[0,0,0,0,0,0,0,0,0,0,0,0,0],"id":50,"left_children":[1,3,5,7,9,11,-1,-1,-1,-1,-1,-1,-1],"loss_changes":[6.064013E1,1.7018452E1,9.5298195E0,2.3856096E0,3.6836958E0,2.9859543E-2,0E0,0E0,0E0,0E0,0E0,0E0,0E0],"parents":[2147483647,0,0,1,1,2,2,3,3,4,4,5,5],"right_children":[2,4,6,8,10,12,-1,-1,-1,-1,-1,-1,-1],"split_conditions":[5.328477E0,7.31815E-1,-4.3207683E-2,-3.5338572E-1,1.9384556E0,9.749279E-1,8.81161E-2,-1.9576254E-3,-8.942262E-6,4.9133147E-3,1.4045902E-2,3.3452835E-2,4.90405E-3],"split_indices":[0,0,2,0,0,47,0,0,0,0,0,0,0],"split_type":[0,0,0,0,0,0,0,0,0,0,0,0,0],"sum_hessian":[7.341E3,7.285E3,5.6E1,6.53E3,7.55E2,4.5E1,1.1E1,3.787E3,2.743E3,6.13E2,1.42E2,4E1,5E0],"tree_param":{"num_deleted":"0","num_feature":"49","num_nodes":"13","size_leaf_vector":"1"}},{"base_weights":[3.6980873E-3,-5.0414214E-3,1.0165074E0,-2.1083336E-2,1.3924514E-1,3.1039516E-2,1.6268008E0,-2.1136042E-3,-2.050406E-4,5.141265E-3,1.482023E-2,9.693414E-2,1.9920794E-2],"categories":[],"categories_nodes":[],"categories_segments":[],"categories_sizes":[],"default_left":[0,0,0,0,0,0,0,0,0,0,0,0,0],"id":51,"left_children":[1,3,5,7,9,-1,11,-1,-1,-1,-1,-1,-1],"loss_changes":[6.51811E1,1.665056E1,8.591888E0,2.3088603E0,3.6835022E0,0E0,2.5473557E0,0E0,0E0,0E0,0E0,0E0,0E0],"parents":[2147483647,0,0,1,1,2,2,3,3,4,4,6,6],"right_children":[2,4,6,8,10,-1,12,-1,-1,-1,-1,-1,-1],"split_conditions":[5.328477E0,7.882084E-1,5.909185E-1,-4.1813374E-1,2.0834672E0,3.1039516E-2,-6.7434746E-1,-2.1136042E-3,-2.050406E-4,5.141265E-3,1.482023E-2,9.693414E-2,1.9920794E-2],"split_indices":[0,0,5,0,0,0,7,0,0,0,0,0,0],"split_type":[0,0,0,0,0,0,0,0,0,0,0,0,0],"sum_hessian":[7.276E3,7.218E3,5.8E1,6.504E3,7.14E2,4.2E1,1.6E1,2.872E3,3.632E3,5.9E2,1.24E2,1E1,6E0],"tree_param":{"num_deleted":"0","num_feature":"49","num_nodes":"13","size_leaf_vector":"1"}},{"base_weights":[3.3863364E-3,-5.0923987E-3,9.3611836E-1,-1.608589E-2,1.7058778E-1,2.8059674E-2,1.543648E0,-1.3342621E-3,1.8907543E-3,-3.3402783E-3,1.0770715E-2,9.42915E-2,2.0720033E-2],"categories":[],"categories_nodes":[],"categories_segments":[],"categories_sizes":[],"default_left":[0,0,0,0,0,0,0,0,0,0,0,0,0],"id":52,"left_children":[1,3,5,7,9,-1,11,-1,-1,-1,-1,-1,-1],"loss_changes":[5.881802E1,1.3985027E1,9.456306E0,3.92162E0,4.7092667E0,0E0,2.9833717E0,0E0,0E0,0E0,0E0,0E0,0E0],"parents":[2147483647,0,0,1,1,2,2,3,3,4,4,6,6],"right_children":[2,4,6,8,10,-1,12,-1,-1,-1,-1,-1,-1],"split_conditions":[5.328477E0,1.3267807E0,-1.7299865E-1,5.5988863E-2,6.866045E-1,2.8059674E-2,-6.7434746E-1,-1.3342621E-3,1.8907543E-3,-3.3402783E-3,1.0770715E-2,9.42915E-2,2.0720033E-2],"split_indices":[0,0,3,0,13,0,7,0,0,0,0,0,0],"split_type":[0,0,0,0,0,0,0,0,0,0,0,0,0],"sum_hessian":[7.347E3,7.285E3,6.2E1,6.864E3,4.21E2,4.5E1,1.7E1,5.749E3,1.115E3,6.4E1,3.57E2,1E1,7E0],"tree_param":{"num_deleted":"0","num_feature":"49","num_nodes":"13","size_leaf_vector":"1"}},{"base_weights":[3.375371E-3,-4.992284E-3,9.192199E-1,-1.878699E-2,1.2140295E-1,2.8107269E-2,1.5062519E0,-1.9432225E-3,-1.3869363E-4,-3.2924523E-3,6.9681737E-3,9.203258E-2,2.01157E-2],"categories":[],"categories_nodes":[],"categories_segments":[],"categories_sizes":[],"default_left":[0,0,0,0,0,0,0,0,0,0,0,0,0],"id":53,"left_children":[1,3,5,7,9,-1,11,-1,-1,-1,-1,-1,-1],"loss_changes":[5.755651E1,1.2774101E1,8.572224E0,2.107021E0,2.5188065E0,0E0,2.848774E0,0E0,0E0,0E0,0E0,0E0,0E0],"parents":[2147483647,0,0,1,1,2,2,3,3,4,4,6,6],"right_children":[2,4,6,8,10,-1,12,-1,-1,-1,-1,-1,-1],"split_conditions":[5.328477E0,7.882084E-1,-1.9087863E-1,-4.1813374E-1,-1.7373127E-1,2.8107269E-2,-6.7434746E-1,-1.9432225E-3,-1.3869363E-4,-3.2924523E-3,6.9681737E-3,9.203258E-2,2.01157E-2],"split_indices":[0,0,4,0,1,0,7,0,0,0,0,0,0],"split_type":[0,0,0,0,0,0,0,0,0,0,0,0,0],"sum_hessian":[7.419E3,7.356E3,6.3E1,6.641E3,7.15E2,4.6E1,1.7E1,2.924E3,3.717E3,5.8E1,6.57E2,1E1,7E0],"tree_param":{"num_deleted":"0","num_feature":"49","num_nodes":"13","size_leaf_vector":"1"}},{"base_weights":[1.9622194E-3,-9.6000545E-3,4.825071E-1,-2.3425875E-2,5.4623153E-2,3.3562323E-1,1.2271495E0,-2.4026386E-3,-6.938053E-4,1.8526119E-3,5.2891937E-3,-7.233801E-3,1.8073348E-2,2.5134629E-2,8.522084E-2],"categories":[],"categories_nodes":[],"categories_segments":[],"categories_sizes":[],"default_left":[0,0,0,0,0,0,0,0,0,0,0,0,0,0,0],"id":54,"left_children":[1,3,5,7,9,11,13,-1,-1,-1,-1,-1,-1,-1,-1],"loss_changes":[4.1142197E1,6.352856E0,1.5878178E1,1.3441775E0,1.015779E0,2.3123817E0,3.1607857E0,0E0,0E0,0E0,0E0,0E0,0E0,0E0,0E0],"parents":[2147483647,0,0,1,1,2,2,3,3,4,4,5,5,6,6],"right_children":[2,4,6,8,10,12,14,-1,-1,-1,-1,-1,-1,-1,-1],"split_conditions":[2.0834672E0,1.232731E-1,5.909185E-1,-4.8825258E-1,1.3267807E0,-5.584096E-1,4.6769166E0,-2.4026386E-3,-6.938053E-4,1.8526119E-3,5.2891937E-3,-7.233801E-3,1.8073348E-2,2.5134629E-2,8.522084E-2],"split_indices":[0,0,5,0,0,1,13,0,0,0,0,0,0,0,0],"split_type":[0,0,0,0,0,0,0,0,0,0,0,0,0,0,0],"sum_hessian":[7.336E3,7.167E3,1.69E2,5.909E3,1.258E3,1.48E2,2.1E1,1.625E3,4.284E3,9.53E2,3.05E2,5E0,1.43E2,1.3E1,8E0],"tree_param":{"num_deleted":"0","num_feature":"49","num_nodes":"15","size_leaf_vector":"1"}},{"base_weights":[1.6526165E-3,-8.902634E-3,4.2813984E-1,-2.192649E-2,5.174437E-2,3.1283805E-1,9.055746E-1,-2.2649248E-3,-6.3582463E-4,1.6799178E-3,5.0926264E-3,-8.3988495E-3,1.7146928E-2,4.955509E-2,8.020832E-3],"categories":[],"categories_nodes":[],"categories_segments":[],"categories_sizes":[],"default_left":[0,0,0,0,0,0,0,0,0,0,0,0,0,0,0],"id":55,"left_children":[1,3,5,7,9,11,13,-1,-1,-1,-1,-1,-1,-1,-1],"loss_changes":[3.3359352E1,5.6457124E0,7.584408E0,1.2293189E0,1.0328372E0,2.6248398E0,3.746605E-1,0E0,0E0,0E0,0E0,0E0,0E0,0E0,0E0],"parents":[2147483647,0,0,1,1,2,2,3,3,4,4,5,5,6,6],"right_children":[2,4,6,8,10,12,14,-1,-1,-1,-1,-1,-1,-1,-1],"split_conditions":[2.0834672E0,1.232731E-1,6.023698E0,-4.8825258E-1,8.344032E6,2.0513548E-1,1E0,-2.2649248E-3,-6.3582463E-4,1.6799178E-3,5.0926264E-3,-8.3988495E-3,1.7146928E-2,4.955509E-2,8.020832E-3],"split_indices":[0,0,0,0,14,13,31,0,0,0,0,0,0,0,0],"split_type":[0,0,0,0,0,0,0,0,0,0,0,0,0,0,0],"sum_hessian":[7.336E3,7.162E3,1.74E2,5.908E3,1.254E3,1.48E2,2.6E1,1.643E3,4.265E3,9.37E2,3.17E2,6E0,1.42E2,2.1E1,5E0],"tree_param":{"num_deleted":"0","num_feature":"49","num_nodes":"15","size_leaf_vector":"1"}},{"base_weights":[3.2778615E-3,-3.4485387E-3,8.0508983E-1,-1.6516976E-2,9.917792E-2,4.3457252E-1,1.4395331E0,-1.5582348E-3,-0E0,3.4457196E-3,1.1565924E-2,2.3547467E-2,3.695563E-3,8.392689E-2,1.4562982E-2],"categories":[],"categories_nodes":[],"categories_segments":[],"categories_sizes":[],"default_left":[0,0,0,0,0,0,0,0,0,0,0,0,0,0,0],"id":56,"left_children":[1,3,5,7,9,11,13,-1,-1,-1,-1,-1,-1,-1,-1],"loss_changes":[4.0194275E1,9.726097E0,1.0134693E1,1.574339E0,2.9813461E0,6.1182022E-2,1.6655426E0,0E0,0E0,0E0,0E0,0E0,0E0,0E0,0E0],"parents":[2147483647,0,0,1,1,2,2,3,3,4,4,5,5,6,6],"right_children":[2,4,6,8,10,12,14,-1,-1,-1,-1,-1,-1,-1,-1],"split_conditions":[5.328477E0,6.163427E-1,-1.7299865E-1,-3.8784838E-1,1.9384556E0,1E0,1.2057917E0,-1.5582348E-3,-0E0,3.4457196E-3,1.1565924E-2,2.3547467E-2,3.695563E-3,8.392689E-2,1.4562982E-2],"split_indices":[0,0,3,0,0,31,1,0,0,0,0,0,0,0,0],"split_type":[0,0,0,0,0,0,0,0,0,0,0,0,0,0,0],"sum_hessian":[7.341E3,7.284E3,5.7E1,6.471E3,8.13E2,4.2E1,1.5E1,3.435E3,3.036E3,6.72E2,1.41E2,3.5E1,7E0,1E1,5E0],"tree_param":{"num_deleted":"0","num_feature":"49","num_nodes":"15","size_leaf_vector":"1"}},{"base_weights":[2.3831155E-3,-3.9358754E-3,7.89782E-1,-1.3793671E-2,1.2690012E-1,6.838798E-2,4.625536E-1,-1.0957819E-3,1.1179539E-3,-5.6152204E-3,7.893825E-3,9.630218E-4,2.4859587E-2],"categories":[],"categories_nodes":[],"categories_segments":[],"categories_sizes":[],"default_left":[0,0,0,0,0,0,0,0,0,0,0,0,0],"id":57,"left_children":[1,3,5,7,9,-1,11,-1,-1,-1,-1,-1,-1],"loss_changes":[3.6872337E1,9.27127E0,6.71418E0,1.9826838E0,3.8476238E0,0E0,2.969265E-1,0E0,0E0,0E0,0E0,0E0,0E0],"parents":[2147483647,0,0,1,1,2,2,3,3,4,4,6,6],"right_children":[2,4,6,8,10,-1,12,-1,-1,-1,-1,-1,-1],"split_conditions":[5.328477E0,1.2526338E0,9.26179E-1,-3.9939657E-2,4.770574E-1,6.838798E-2,1.1224511E0,-1.0957819E-3,1.1179539E-3,-5.6152204E-3,7.893825E-3,9.630218E-4,2.4859587E-2],"split_indices":[0,0,1,0,13,0,1,0,0,0,0,0,0],"split_type":[0,0,0,0,0,0,0,0,0,0,0,0,0],"sum_hessian":[7.292E3,7.238E3,5.4E1,6.74E3,4.98E2,1.3E1,4.1E1,5.521E3,1.219E3,5.3E1,4.45E2,5E0,3.6E1],"tree_param":{"num_deleted":"0","num_feature":"49","num_nodes":"13","size_leaf_vector":"1"}},{"base_weights":[2.46647E-3,-4.1687544E-3,7.5780785E-1,-1.3204261E-2,1.182048E-1,2.2410331E-2,1.2517041E0,-1.0673078E-3,1.0250561E-3,-1.9312877E-3,7.5070667E-3,8.206769E-2,1.6339187E-2],"categories":[],"categories_nodes":[],"categories_segments":[],"categories_sizes":[],"default_left":[0,0,0,0,0,0,0,0,0,0,0,0,0],"id":58,"left_children":[1,3,5,7,9,-1,11,-1,-1,-1,-1,-1,-1],"loss_changes":[3.6834217E1,7.8754916E0,5.791252E0,1.8408825E0,2.5562744E0,0E0,3.5087585E0,0E0,0E0,0E0,0E0,0E0,0E0],"parents":[2147483647,0,0,1,1,2,2,3,3,4,4,6,6],"right_children":[2,4,6,8,10,-1,12,-1,-1,-1,-1,-1,-1],"split_conditions":[5.328477E0,1.1931074E0,-1.9087863E-1,-7.7087715E-2,6.6009486E-1,2.2410331E-2,-6.7434746E-1,-1.0673078E-3,1.0250561E-3,-1.9312877E-3,7.5070667E-3,8.206769E-2,1.6339187E-2],"split_indices":[0,0,4,0,13,0,7,0,0,0,0,0,0],"split_type":[0,0,0,0,0,0,0,0,0,0,0,0,0],"sum_hessian":[7.236E3,7.177E3,5.9E1,6.693E3,4.84E2,4.3E1,1.6E1,5.409E3,1.284E3,7.8E1,4.06E2,8E0,8E0],"tree_param":{"num_deleted":"0","num_feature":"49","num_nodes":"13","size_leaf_vector":"1"}},{"base_weights":[2.374691E-3,-2.5083038E-3,9.850342E-1,-7.978474E-3,2.6119605E-1,7.1674995E-2,1.84995E-2,-9.2868647E-4,2.0311126E-3,-6.353629E-3,1.4822497E-2],"categories":[],"categories_nodes":[],"categories_segments":[],"categories_sizes":[],"default_left":[0,0,0,0,0,0,0,0,0,0,0],"id":59,"left_children":[1,3,5,7,9,-1,-1,-1,-1,-1,-1],"loss_changes":[3.5905403E1,1.0370686E1,6.2912254E0,3.6773481E0,2.3053598E0,0E0,0E0,0E0,0E0,0E0,0E0],"parents":[2147483647,0,0,1,1,2,2,3,3,4,4],"right_children":[2,4,6,8,10,-1,-1,-1,-1,-1,-1],"split_conditions":[6.023698E0,2.0834672E0,1.2057917E0,1.232731E-1,3.4044257E-1,7.1674995E-2,1.84995E-2,-9.2868647E-4,2.0311126E-3,-6.353629E-3,1.4822497E-2],"split_indices":[0,0,1,0,13,0,0,0,0,0,0],"split_type":[0,0,0,0,0,0,0,0,0,0,0],"sum_hessian":[7.332E3,7.3E3,3.2E1,7.159E3,1.41E2,1.4E1,1.8E1,5.892E3,1.267E3,9E0,1.32E2],"tree_param":{"num_deleted":"0","num_feature":"49","num_nodes":"11","size_leaf_vector":"1"}},{"base_weights":[1.3070838E-3,-3.900275E-3,6.3900965E-1,-1.2065606E-2,1.0235401E-1,4.247874E-1,6.7801274E-2,-1.2367953E-3,3.029288E-4,-2.5253748E-3,6.7067454E-3,2.2442034E-2,1.1063782E-3],"categories":[],"categories_nodes":[],"categories_segments":[],"categories_sizes":[],"default_left":[0,0,0,0,0,0,0,0,0,0,0,0,0],"id":60,"left_children":[1,3,5,7,9,11,-1,-1,-1,-1,-1,-1,-1],"loss_changes":[2.5007315E1,6.3085647E0,5.242962E0,1.580879E0,2.6088958E0,1.5335274E-1,0E0,0E0,0E0,0E0,0E0,0E0,0E0],"parents":[2147483647,0,0,1,1,2,2,3,3,4,4,5,5],"right_children":[2,4,6,8,10,12,-1,-1,-1,-1,-1,-1,-1],"split_conditions":[5.328477E0,1.1931074E0,2.7665615E0,-3.333944E-1,1.7124313E-1,9.749279E-1,6.7801274E-2,-1.2367953E-3,3.029288E-4,-2.5253748E-3,6.7067454E-3,2.2442034E-2,1.1063782E-3],"split_indices":[0,0,5,0,1,47,0,0,0,0,0,0,0],"split_type":[0,0,0,0,0,0,0,0,0,0,0,0,0],"sum_hessian":[7.388E3,7.332E3,5.6E1,6.819E3,5.13E2,5E1,6E0,4.035E3,2.784E3,8.4E1,4.29E2,4.5E1,5E0],"tree_param":{"num_deleted":"0","num_feature":"49","num_nodes":"13","size_leaf_vector":"1"}},{"base_weights":[2.9042943E-3,-5.4673525E-3,5.1391524E-1,-1.6761566E-2,4.6815403E-2,3.2673115E-1,9.976791E-1,-1.8669268E-3,-4.3726197E-4,2.598619E-4,3.4291733E-3,1.8599132E-2,-0E0,6.408469E-2,1.8117314E-2],"categories":[],"categories_nodes":[],"categories_segments":[],"categories_sizes":[],"default_left":[0,0,0,0,0,0,0,0,0,0,0,0,0,0,0],"id":61,"left_children":[1,3,5,7,9,11,13,-1,-1,-1,-1,-1,-1,-1,-1],"loss_changes":[3.184751E1,4.2598233E0,8.309397E0,9.510354E-1,1.1034656E0,1.2048702E0,1.9404011E0,0E0,0E0,0E0,0E0,0E0,0E0,0E0,0E0],"parents":[2147483647,0,0,1,1,2,2,3,3,4,4,5,5,6,6],"right_children":[2,4,6,8,10,12,14,-1,-1,-1,-1,-1,-1,-1,-1],"split_conditions":[2.775555E0,1.5266334E-1,5.909185E-1,-4.8825258E-1,1.9502802E-1,-1.6025643E-1,-6.7434746E-1,-1.8669268E-3,-4.3726197E-4,2.598619E-4,3.4291733E-3,1.8599132E-2,-0E0,6.408469E-2,1.8117314E-2],"split_indices":[0,0,5,0,1,2,7,0,0,0,0,0,0,0,0],"split_type":[0,0,0,0,0,0,0,0,0,0,0,0,0,0,0],"sum_hessian":[7.353E3,7.238E3,1.15E2,5.966E3,1.272E3,9E1,2.5E1,1.643E3,4.323E3,4.5E2,8.22E2,7.7E1,1.3E1,1.3E1,1.2E1],"tree_param":{"num_deleted":"0","num_feature":"49","num_nodes":"15","size_leaf_vector":"1"}},{"base_weights":[3.15407E-3,-2.3211865E-3,6.588573E-1,-1.3461125E-2,6.837342E-2,1.0876836E0,2.6954237E-1,-1.7730802E-3,-2.7971627E-4,2.1991162E-3,7.813122E-3,8.612454E-3,6.374457E-2,-0E0,1.5575034E-2],"categories":[],"categories_nodes":[],"categories_segments":[],"categories_sizes":[],"default_left":[0,0,0,0,0,0,0,0,0,0,0,0,0,0,0],"id":62,"left_children":[1,3,5,7,9,11,13,-1,-1,-1,-1,-1,-1,-1,-1],"loss_changes":[2.6879904E1,5.715158E0,7.934864E0,1.0639193E0,1.9391623E0,2.5161686E0,2.9595447E-1,0E0,0E0,0E0,0E0,0E0,0E0,0E0,0E0],"parents":[2147483647,0,0,1,1,2,2,3,3,4,4,5,5,6,6],"right_children":[2,4,6,8,10,12,14,-1,-1,-1,-1,-1,-1,-1,-1],"split_conditions":[5.328477E0,4.5268238E-1,-7.818315E-1,-4.8825258E-1,1.7157164E0,6.023698E0,-5.650297E-1,-1.7730802E-3,-2.7971627E-4,2.1991162E-3,7.813122E-3,8.612454E-3,6.374457E-2,-0E0,1.5575034E-2],"split_indices":[0,0,47,0,0,0,15,0,0,0,0,0,0,0,0],"split_type":[0,0,0,0,0,0,0,0,0,0,0,0,0,0,0],"sum_hessian":[7.352E3,7.295E3,5.7E1,6.314E3,9.81E2,2.2E1,3.5E1,1.635E3,4.679E3,7.8E2,2.01E2,6E0,1.6E1,7E0,2.8E1],"tree_param":{"num_deleted":"0","num_feature":"49","num_nodes":"15","size_leaf_vector":"1"}},{"base_weights":[1.3095975E-3,-5.0135115E-3,3.999745E-1,-1.4592904E-2,3.9294336E-2,2.4413355E-1,4.212683E-2,-1.6689909E-3,-3.676582E-4,-1.1314505E-3,2.711428E-3,2.5950244E-3,2.0054622E-2],"categories":[],"categories_nodes":[],"categories_segments":[],"categories_sizes":[],"default_left":[0,0,0,0,0,0,0,0,0,0,0,0,0],"id":63,"left_children":[1,3,5,7,9,11,-1,-1,-1,-1,-1,-1,-1],"loss_changes":[1.8726164E1,3.043258E0,6.2113113E0,7.781732E-1,1.2017975E0,2.415053E0,0E0,0E0,0E0,0E0,0E0,0E0,0E0],"parents":[2147483647,0,0,1,1,2,2,3,3,4,4,5,5],"right_children":[2,4,6,8,10,12,-1,-1,-1,-1,-1,-1,-1],"split_conditions":[2.775555E0,1.5266334E-1,7.570522E-1,-4.8825258E-1,-1.3608748E-1,1.4428915E0,4.212683E-2,-1.6689909E-3,-3.676582E-4,-1.1314505E-3,2.711428E-3,2.5950244E-3,2.0054622E-2],"split_indices":[0,0,4,0,1,1,0,0,0,0,0,0,0],"split_type":[0,0,0,0,0,0,0,0,0,0,0,0,0],"sum_hessian":[7.31E3,7.199E3,1.11E2,5.935E3,1.264E3,8.9E1,2.2E1,1.619E3,4.316E3,2.36E2,1.028E3,4.5E1,4.4E1],"tree_param":{"num_deleted":"0","num_feature":"49","num_nodes":"13","size_leaf_vector":"1"}},{"base_weights":[2.8934202E-3,-8.552846E-3,1.4258069E-1,-1.8559024E-2,1.1823656E-2,1.03647694E-1,4.9129498E-1,-1.4342531E-3,-6.419013E-4,4.6637473E-5,1.6534947E-3,6.307619E-3,-0E0,4.1698725E-3,4.077984E-2],"categories":[],"categories_nodes":[],"categories_segments":[],"categories_sizes":[],"default_left":[0,0,0,0,0,0,0,0,0,0,0,0,0,0,0],"id":64,"left_children":[1,3,5,7,9,11,13,-1,-1,-1,-1,-1,-1,-1,-1],"loss_changes":[1.1797452E1,1.3845223E0,6.918191E0,2.3325813E-1,4.8672327E-1,1.1785507E0,6.0415535E0,0E0,0E0,0E0,0E0,0E0,0E0,0E0,0E0],"parents":[2147483647,0,0,1,1,2,2,3,3,4,4,5,5,6,6],"right_children":[2,4,6,8,10,12,14,-1,-1,-1,-1,-1,-1,-1,-1],"split_conditions":[9.939916E-1,-2.8725222E-1,1.0246001E0,-4.6033353E-1,2.4840353E-1,-1.3009381E-1,1.5730674E0,-1.4342531E-3,-6.419013E-4,4.6637473E-5,1.6534947E-3,6.307619E-3,-0E0,4.1698725E-3,4.077984E-2],"split_indices":[13,13,5,13,1,10,13,0,0,0,0,0,0,0,0],"split_type":[0,0,0,0,0,0,0,0,0,0,0,0,0,0,0],"sum_hessian":[7.311E3,6.757E3,5.54E2,4.555E3,2.202E3,5.06E2,4.8E1,1.593E3,2.962E3,1.481E3,7.21E2,4.14E2,9.2E1,2.5E1,2.3E1],"tree_param":{"num_deleted":"0","num_feature":"49","num_nodes":"15","size_leaf_vector":"1"}},{"base_weights":[2.3859942E-3,-3.0792356E-3,4.291859E-1,-1.3194687E-2,4.894462E-2,2.8189278E-1,7.389459E-1,-1.5603645E-3,-3.1583966E-4,-3.1567183E-3,2.8966803E-3,1.6931904E-2,-0E0,9.455061E-3,4.2745735E-2],"categories":[],"categories_nodes":[],"categories_segments":[],"categories_sizes":[],"default_left":[0,0,0,0,0,0,0,0,0,0,0,0,0,0,0],"id":65,"left_children":[1,3,5,7,9,11,13,-1,-1,-1,-1,-1,-1,-1,-1],"loss_changes":[1.7526169E1,3.8161073E0,2.5783215E0,7.3107064E-1,1.200448E0,1.0002432E0,1.1874771E-1,0E0,0E0,0E0,0E0,0E0,0E0,0E0,0E0],"parents":[2147483647,0,0,1,1,2,2,3,3,4,4,5,5,6,6],"right_children":[2,4,6,8,10,12,14,-1,-1,-1,-1,-1,-1,-1,-1],"split_conditions":[3.417366E0,2.302416E-1,-1.9087863E-1,-4.8735744E-1,-1.9087946E-1,1E0,1E0,-1.5603645E-3,-3.1583966E-4,-3.1567183E-3,2.8966803E-3,1.6931904E-2,-0E0,9.455061E-3,4.2745735E-2],"split_indices":[0,0,4,0,4,17,32,0,0,0,0,0,0,0,0],"split_type":[0,0,0,0,0,0,0,0,0,0,0,0,0,0,0],"sum_hessian":[7.378E3,7.288E3,9E1,6.116E3,1.172E3,6.9E1,2.1E1,1.657E3,4.459E3,7.9E1,1.093E3,5.5E1,1.4E1,7E0,1.4E1],"tree_param":{"num_deleted":"0","num_feature":"49","num_nodes":"15","size_leaf_vector":"1"}},{"base_weights":[1.9720946E-3,-4.7382587E-3,4.0294826E-1,-1.3929636E-2,2.5065375E-2,2.6002827E-1,7.972357E-1,-1.4792148E-3,-3.5762432E-4,-1.3887266E-3,1.8551266E-3,2.1470342E-2,5.3920546E-3,5.4761376E-2,1.5766907E-2],"categories":[],"categories_nodes":[],"categories_segments":[],"categories_sizes":[],"default_left":[0,0,0,0,0,0,0,0,0,0,0,0,0,0,0],"id":66,"left_children":[1,3,5,7,9,11,13,-1,-1,-1,-1,-1,-1,-1,-1],"loss_changes":[2.0105236E1,1.9791682E0,5.1546383E0,5.631088E-1,1.0878657E0,1.944335E0,1.4502125E0,0E0,0E0,0E0,0E0,0E0,0E0,0E0,0E0],"parents":[2147483647,0,0,1,1,2,2,3,3,4,4,5,5,6,6],"right_children":[2,4,6,8,10,12,14,-1,-1,-1,-1,-1,-1,-1,-1],"split_conditions":[2.775555E0,-3.233102E-2,7.570522E-1,-4.8825258E-1,-2.3141427E-1,-7.52448E-1,-6.7434746E-1,-1.4792148E-3,-3.5762432E-4,-1.3887266E-3,1.8551266E-3,2.1470342E-2,5.3920546E-3,5.4761376E-2,1.5766907E-2],"split_indices":[0,0,4,0,1,7,7,0,0,0,0,0,0,0,0],"split_type":[0,0,0,0,0,0,0,0,0,0,0,0,0,0,0],"sum_hessian":[7.36E3,7.242E3,1.18E2,5.555E3,1.687E3,9.4E1,2.4E1,1.642E3,3.913E3,3.01E2,1.386E3,3.8E1,5.6E1,1E1,1.4E1],"tree_param":{"num_deleted":"0","num_feature":"49","num_nodes":"15","size_leaf_vector":"1"}},{"base_weights":[1.5661367E-3,-3.0396148E-3,5.382286E-1,-8.897812E-3,6.544141E-2,8.669319E-1,1.5610772E-2,-1.2226822E-3,-4.667737E-5,-5.1845037E-3,4.318041E-3,7.6559593E-4,5.6887724E-2],"categories":[],"categories_nodes":[],"categories_segments":[],"categories_sizes":[],"default_left":[0,0,0,0,0,0,0,0,0,0,0,0,0],"id":67,"left_children":[1,3,5,7,9,11,-1,-1,-1,-1,-1,-1,-1],"loss_changes":[1.8589603E1,2.8947191E0,2.5758915E0,8.17758E-1,2.0387626E0,4.179779E0,0E0,0E0,0E0,0E0,0E0,0E0,0E0],"parents":[2147483647,0,0,1,1,2,2,3,3,4,4,5,5],"right_children":[2,4,6,8,10,12,-1,-1,-1,-1,-1,-1,-1],"split_conditions":[5.328477E0,1.0876307E0,1.2057917E0,-4.619953E-1,4.770574E-1,1.2863606E-2,1.5610772E-2,-1.2226822E-3,-4.667737E-5,-5.1845037E-3,4.318041E-3,7.6559593E-4,5.6887724E-2],"split_indices":[0,0,1,0,13,5,0,0,0,0,0,0,0],"split_type":[0,0,0,0,0,0,0,0,0,0,0,0,0],"sum_hessian":[7.361E3,7.302E3,5.9E1,6.74E3,5.62E2,1.7E1,4.2E1,2.249E3,4.491E3,5.6E1,5.06E2,6E0,1.1E1],"tree_param":{"num_deleted":"0","num_feature":"49","num_nodes":"13","size_leaf_vector":"1"}},{"base_weights":[3.3325322E-3,-1.5613199E-3,5.645167E-1,-5.4129087E-3,1.14663884E-1,3.3902407E-1,5.301562E-2,-6.352057E-4,1.1351885E-3,-8.762884E-3,9.3137985E-3,-0E0,1.9249527E-2],"categories":[],"categories_nodes":[],"categories_segments":[],"categories_sizes":[],"default_left":[0,0,0,0,0,0,0,0,0,0,0,0,0],"id":68,"left_children":[1,3,5,7,9,11,-1,-1,-1,-1,-1,-1,-1],"loss_changes":[2.065008E1,3.2007523E0,4.489996E0,1.4479243E0,4.9254165E0,8.7455463E-1,0E0,0E0,0E0,0E0,0E0,0E0,0E0],"parents":[2147483647,0,0,1,1,2,2,3,3,4,4,5,5],"right_children":[2,4,6,8,10,12,-1,-1,-1,-1,-1,-1,-1],"split_conditions":[5.328477E0,1.6670808E0,1.6509162E0,-1.0549428E-2,6.866045E-1,-8.660254E-1,5.301562E-2,-6.352057E-4,1.1351885E-3,-8.762884E-3,9.3137985E-3,-0E0,1.9249527E-2],"split_indices":[0,0,5,0,13,45,0,0,0,0,0,0,0],"split_type":[0,0,0,0,0,0,0,0,0,0,0,0,0],"sum_hessian":[7.369E3,7.309E3,6E1,7.085E3,2.24E2,4.8E1,1.2E1,5.648E3,1.437E3,4.1E1,1.83E2,6E0,4.2E1],"tree_param":{"num_deleted":"0","num_feature":"49","num_nodes":"13","size_leaf_vector":"1"}},{"base_weights":[1.9994508E-3,-2.3133853E-3,4.759667E-1,-5.9165973E-3,1.0382645E-1,3.1293806E-1,5.240214E-2,-6.5663876E-4,7.1152026E-4,-6.3588205E-3,8.21764E-3,1.0084494E-2,2.5952278E-2],"categories":[],"categories_nodes":[],"categories_segments":[],"categories_sizes":[],"default_left":[0,0,0,0,0,0,0,0,0,0,0,0,0],"id":69,"left_children":[1,3,5,7,9,11,-1,-1,-1,-1,-1,-1,-1],"loss_changes":[1.5414662E1,2.7313497E0,3.7494555E0,1.0300688E0,3.4022648E0,3.7072802E-1,0E0,0E0,0E0,0E0,0E0,0E0,0E0],"parents":[2147483647,0,0,1,1,2,2,3,3,4,4,5,5],"right_children":[2,4,6,8,10,12,-1,-1,-1,-1,-1,-1,-1],"split_conditions":[5.328477E0,1.6670808E0,2.7665615E0,-1.8092325E-1,-1.6025715E-1,-2.4492937E-16,5.240214E-2,-6.5663876E-4,7.1152026E-4,-6.3588205E-3,8.21764E-3,1.0084494E-2,2.5952278E-2],"split_indices":[0,0,5,0,2,45,0,0,0,0,0,0,0],"split_type":[0,0,0,0,0,0,0,0,0,0,0,0,0],"sum_hessian":[7.371E3,7.308E3,6.3E1,7.079E3,2.29E2,5.6E1,7E0,5.239E3,1.84E3,4.4E1,1.85E2,4.5E1,1.1E1],"tree_param":{"num_deleted":"0","num_feature":"49","num_nodes":"13","size_leaf_vector":"1"}},{"base_weights":[1.335157E-3,-1.7041138E-3,6.392546E-1,-5.094122E-3,1.627354E-1,9.736956E-1,1.7331593E-1,-5.754668E-4,1.2023486E-3,-1.538932E-3,1.0840342E-2,8.718039E-3,5.734503E-2,-0E0,1.2490134E-2],"categories":[],"categories_nodes":[],"categories_segments":[],"categories_sizes":[],"default_left":[0,0,0,0,0,0,0,0,0,0,0,0,0,0,0],"id":70,"left_children":[1,3,5,7,9,11,13,-1,-1,-1,-1,-1,-1,-1,-1],"loss_changes":[1.4719435E1,3.9787996E0,3.96315E0,1.3365648E0,1.6703413E0,7.057705E-1,3.3757693E-1,0E0,0E0,0E0,0E0,0E0,0E0,0E0,0E0],"parents":[2147483647,0,0,1,1,2,2,3,3,4,4,5,5,6,6],"right_children":[2,4,6,8,10,12,14,-1,-1,-1,-1,-1,-1,-1,-1],"split_conditions":[6.023698E0,2.0834672E0,-6.7434746E-1,1.232731E-1,-1.6025715E-1,-1.6025656E-1,-1.9087881E-1,-5.754668E-4,1.2023486E-3,-1.538932E-3,1.0840342E-2,8.718039E-3,5.734503E-2,-0E0,1.2490134E-2],"split_indices":[0,0,7,0,2,2,4,0,0,0,0,0,0,0,0],"split_type":[0,0,0,0,0,0,0,0,0,0,0,0,0,0,0],"sum_hessian":[7.354E3,7.323E3,3.1E1,7.184E3,1.39E2,1.4E1,1.7E1,5.91E3,1.274E3,2.8E1,1.11E2,5E0,9E0,6E0,1.1E1],"tree_param":{"num_deleted":"0","num_feature":"49","num_nodes":"15","size_leaf_vector":"1"}},{"base_weights":[2.9732464E-3,-2.9061805E-3,3.6530063E-1,-5.183291E-3,9.98822E-2,2.69666E-1,4.9376342E-2,-1.8961988E-4,-6.0341316E-3,-6.509324E-3,7.950852E-3,1.675338E-2,-0E0],"categories":[],"categories_nodes":[],"categories_segments":[],"categories_sizes":[],"default_left":[0,0,0,0,0,0,0,0,0,0,0,0,0],"id":71,"left_children":[1,3,5,7,9,11,-1,-1,-1,-1,-1,-1,-1],"loss_changes":[1.5876046E1,1.625514E0,4.869711E0,1.0466768E0,2.1644516E0,1.8078938E0,0E0,0E0,0E0,0E0,0E0,0E0,0E0],"parents":[2147483647,0,0,1,1,2,2,3,3,4,4,5,5],"right_children":[2,4,6,8,10,12,-1,-1,-1,-1,-1,-1,-1],"split_conditions":[2.775555E0,1.7157164E0,2.7665615E0,1.8606225E0,6.866045E-1,6.234898E-1,4.9376342E-2,-1.8961988E-4,-6.0341316E-3,-6.509324E-3,7.950852E-3,1.675338E-2,-0E0],"split_indices":[0,0,5,13,13,48,0,0,0,0,0,0,0],"split_type":[0,0,0,0,0,0,0,0,0,0,0,0,0],"sum_hessian":[7.326E3,7.212E3,1.14E2,7.067E3,1.45E2,1.06E2,8E0,6.994E3,7.3E1,2.6E1,1.19E2,8.3E1,2.3E1],"tree_param":{"num_deleted":"0","num_feature":"49","num_nodes":"13","size_leaf_vector":"1"}},{"base_weights":[2.9728557E-3,-1.4965847E-4,6.5960443E-1,-4.794203E-3,1.4732407E-1,5.162872E-2,2.2883311E-1,-6.3507695E-4,7.296552E-4,-2.4179895E-3,1.00798085E-2,-0E0,1.52627155E-2],"categories":[],"categories_nodes":[],"categories_segments":[],"categories_sizes":[],"default_left":[0,0,0,0,0,0,0,0,0,0,0,0,0],"id":72,"left_children":[1,3,5,7,9,-1,11,-1,-1,-1,-1,-1,-1],"loss_changes":[1.55977335E1,4.938816E0,3.7195091E0,1.0935652E0,2.4924493E0,0E0,4.2049336E-1,0E0,0E0,0E0,0E0,0E0,0E0],"parents":[2147483647,0,0,1,1,2,2,3,3,4,4,6,6],"right_children":[2,4,6,8,10,-1,12,-1,-1,-1,-1,-1,-1],"split_conditions":[6.023698E0,1.8325313E0,1.2057917E0,-2.3344098E-1,-1.6025715E-1,5.162872E-2,-2.1210557E-1,-6.3507695E-4,7.296552E-4,-2.4179895E-3,1.00798085E-2,-0E0,1.52627155E-2],"split_indices":[0,0,1,13,2,0,15,0,0,0,0,0,0],"split_type":[0,0,0,0,0,0,0,0,0,0,0,0,0],"sum_hessian":[7.377E3,7.346E3,3.1E1,7.131E3,2.15E2,1.2E1,1.9E1,5.092E3,2.039E3,4.4E1,1.71E2,6E0,1.3E1],"tree_param":{"num_deleted":"0","num_feature":"49","num_nodes":"13","size_leaf_vector":"1"}},{"base_weights":[2.493667E-3,3.8646426E-4,4.4531843E-1,-8.267473E-3,4.3759838E-2,5.325224E-2,4.6729654E-2,-6.748726E-4,2.3137071E-4,-9.4483513E-4,2.710169E-3,9.731567E-3,-3.1390607E-3],"categories":[],"categories_nodes":[],"categories_segments":[],"categories_sizes":[],"default_left":[0,0,0,0,0,0,0,0,0,0,0,0,0],"id":73,"left_children":[1,3,5,7,9,-1,11,-1,-1,-1,-1,-1,-1],"loss_changes":[6.499867E0,2.7565775E0,7.1244383E0,4.1480288E-1,8.307681E-1,0E0,5.7450897E-1,0E0,0E0,0E0,0E0,0E0,0E0],"parents":[2147483647,0,0,1,1,2,2,3,3,4,4,6,6],"right_children":[2,4,6,8,10,-1,12,-1,-1,-1,-1,-1,-1],"split_conditions":[5.796967E0,1.0093802E-1,1.2057917E0,-3.069863E-1,2.022E3,5.325224E-2,4.36762E6,-6.748726E-4,2.3137071E-4,-9.4483513E-4,2.710169E-3,9.731567E-3,-3.1390607E-3],"split_indices":[13,13,1,13,8,0,14,0,0,0,0,0,0],"split_type":[0,0,0,0,0,0,0,0,0,0,0,0,0],"sum_hessian":[7.296E3,7.268E3,2.8E1,6.049E3,1.219E3,7E0,2.1E1,4.342E3,1.707E3,1.64E2,1.055E3,1E1,1.1E1],"tree_param":{"num_deleted":"0","num_feature":"49","num_nodes":"13","size_leaf_vector":"1"}},{"base_weights":[1.4531673E-3,-3.372345E-3,2.4353488E-1,-9.595274E-3,2.4256617E-2,3.106102E-1,-0E0,-1.2718934E-3,-2.2560089E-4,-0E0,2.2431617E-3,1.924272E-2,1.6855333E-3,-8.807799E-3,7.0813806E-3],"categories":[],"categories_nodes":[],"categories_segments":[],"categories_sizes":[],"default_left":[0,0,0,0,0,0,0,0,0,0,0,0,0,0,0],"id":74,"left_children":[1,3,5,7,9,11,13,-1,-1,-1,-1,-1,-1,-1,-1],"loss_changes":[8.785125E0,1.2341487E0,2.473071E0,4.556936E-1,6.7233044E-1,2.026886E0,1.030872E0,0E0,0E0,0E0,0E0,0E0,0E0,0E0,0E0],"parents":[2147483647,0,0,1,1,2,2,3,3,4,4,5,5,6,6],"right_children":[2,4,6,8,10,12,14,-1,-1,-1,-1,-1,-1,-1,-1],"split_conditions":[2.2581675E0,1.232731E-1,6.234898E-1,-4.948169E-1,-1.0702598E-1,1.0124208E-1,1.2769592E0,-1.2718934E-3,-2.2560089E-4,-0E0,2.2431617E-3,1.924272E-2,1.6855333E-3,-8.807799E-3,7.0813806E-3],"split_indices":[0,0,48,0,15,6,1,0,0,0,0,0,0,0,0],"split_type":[0,0,0,0,0,0,0,0,0,0,0,0,0,0,0],"sum_hessian":[7.368E3,7.226E3,1.42E2,5.921E3,1.305E3,1.11E2,3.1E1,1.4E3,4.521E3,5.93E2,7.12E2,8.4E1,2.7E1,1.4E1,1.7E1],"tree_param":{"num_deleted":"0","num_feature":"49","num_nodes":"15","size_leaf_vector":"1"}},{"base_weights":[1.7936052E-3,-4.079281E-3,9.906985E-2,-1.2654369E-2,1.0250525E-2,1.0191804E-2,1.5326859E-1,-1.1176842E-3,-4.3719477E-4,2.4963084E-3,1.7928037E-4,-3.1855435E-3,2.583286E-3,1.5910916E-2,4.837872E-3],"categories":[],"categories_nodes":[],"categories_segments":[],"categories_sizes":[],"default_left":[0,0,0,0,0,0,0,0,0,0,0,0,0,0,0],"id":75,"left_children":[1,3,5,7,9,11,13,-1,-1,-1,-1,-1,-1,-1,-1],"loss_changes":[4.2829375E0,8.569571E-1,1.9346595E0,1.4353472E-1,6.4283097E-1,5.352124E-1,1.9791574E0,0E0,0E0,0E0,0E0,0E0,0E0,0E0,0E0],"parents":[2147483647,0,0,1,1,2,2,3,3,4,4,5,5,6,6],"right_children":[2,4,6,8,10,12,14,-1,-1,-1,-1,-1,-1,-1,-1],"split_conditions":[1.2197345E0,-3.069863E-1,1E0,-4.7361323E-1,-4.2060632E-1,-5E-1,-7.818315E-1,-1.1176842E-3,-4.3719477E-4,2.4963084E-3,1.7928037E-4,-3.1855435E-3,2.583286E-3,1.5910916E-2,4.837872E-3],"split_indices":[13,13,42,13,6,45,47,0,0,0,0,0,0,0,0],"split_type":[0,0,0,0,0,0,0,0,0,0,0,0,0,0,0],"sum_hessian":[7.372E3,6.95E3,4.22E2,4.379E3,2.571E3,1.67E2,2.55E2,1.2E3,3.179E3,3.5E2,2.221E3,5.3E1,1.14E2,5.6E1,1.99E2],"tree_param":{"num_deleted":"0","num_feature":"49","num_nodes":"15","size_leaf_vector":"1"}},{"base_weights":[1.8697106E-3,-1.9139539E-3,4.3644017E-1,-4.4062603E-3,1.3538173E-1,2.6091158E-1,4.6634156E-2,-4.492447E-4,8.767321E-4,1.1390147E-2,5.904175E-4,1.4913492E-2,-0E0],"categories":[],"categories_nodes":[],"categories_segments":[],"categories_sizes":[],"default_left":[0,0,0,0,0,0,0,0,0,0,0,0,0],"id":76,"left_children":[1,3,5,7,9,11,-1,-1,-1,-1,-1,-1,-1],"loss_changes":[1.2382211E1,2.403418E0,3.609558E0,7.143932E-1,1.246422E0,5.470879E-1,0E0,0E0,0E0,0E0,0E0,0E0,0E0],"parents":[2147483647,0,0,1,1,2,2,3,3,4,4,5,5],"right_children":[2,4,6,8,10,12,-1,-1,-1,-1,-1,-1,-1],"split_conditions":[5.328477E0,2.0834672E0,1.6509162E0,1.5266334E-1,-2.4738948E-1,1E0,4.6634156E-2,-4.492447E-4,8.767321E-4,1.1390147E-2,5.904175E-4,1.4913492E-2,-0E0],"split_indices":[0,0,5,0,6,31,0,0,0,0,0,0,0],"split_type":[0,0,0,0,0,0,0,0,0,0,0,0,0],"sum_hessian":[7.338E3,7.278E3,6E1,7.158E3,1.2E2,5.1E1,9E0,5.951E3,1.207E3,6.3E1,5.7E1,4.4E1,7E0],"tree_param":{"num_deleted":"0","num_feature":"49","num_nodes":"13","size_leaf_vector":"1"}},{"base_weights":[1.941247E-3,-2.6272228E-3,2.708682E-1,-4.801345E-3,6.094291E-2,1.4349875E-1,6.0071933E-1,-1.7294244E-4,-6.412388E-3,-4.49837E-3,5.8060004E-3,9.771121E-3,-2.5415036E-3,3.4616537E-2,2.3746353E-3],"categories":[],"categories_nodes":[],"categories_segments":[],"categories_sizes":[],"default_left":[0,0,0,0,0,0,0,0,0,0,0,0,0,0,0],"id":77,"left_children":[1,3,5,7,9,11,13,-1,-1,-1,-1,-1,-1,-1,-1],"loss_changes":[9.266882E0,9.6639234E-1,4.341667E0,1.0724669E0,1.9857041E0,1.1498175E0,9.3953896E-1,0E0,0E0,0E0,0E0,0E0,0E0,0E0,0E0],"parents":[2147483647,0,0,1,1,2,2,3,3,4,4,5,5,6,6],"right_children":[2,4,6,8,10,12,14,-1,-1,-1,-1,-1,-1,-1,-1],"split_conditions":[2.775555E0,1.5434031E0,7.570522E-1,1.8606225E0,9.0049237E-1,-1.6025643E-1,6.123234E-17,-1.7294244E-4,-6.412388E-3,-4.49837E-3,5.8060004E-3,9.771121E-3,-2.5415036E-3,3.4616537E-2,2.3746353E-3],"split_indices":[0,0,4,13,13,2,46,0,0,0,0,0,0,0,0],"split_type":[0,0,0,0,0,0,0,0,0,0,0,0,0,0,0],"sum_hessian":[7.382E3,7.261E3,1.21E2,7.036E3,2.25E2,9.4E1,2.7E1,6.971E3,6.5E1,5.6E1,1.69E2,7.7E1,1.7E1,2.1E1,6E0],"tree_param":{"num_deleted":"0","num_feature":"49","num_nodes":"15","size_leaf_vector":"1"}},{"base_weights":[2.7945375E-3,1.087426E-3,3.5713738E-1,-4.679739E-3,4.991585E-2,3.8709522E-3,4.226446E-2,-5.3149974E-4,3.2357028E-4,5.7783746E-3,1.0862523E-3,4.7917194E-3,-5.5995705E-3],"categories":[],"categories_nodes":[],"categories_segments":[],"categories_sizes":[],"default_left":[0,0,0,0,0,0,0,0,0,0,0,0,0],"id":78,"left_children":[1,3,5,7,9,11,-1,-1,-1,-1,-1,-1,-1],"loss_changes":[4.160671E0,2.0795135E0,5.0800004E0,4.340132E-1,1.3367951E0,3.0873075E-1,0E0,0E0,0E0,0E0,0E0,0E0,0E0],"parents":[2147483647,0,0,1,1,2,2,3,3,4,4,5,5],"right_children":[2,4,6,8,10,12,-1,-1,-1,-1,-1,-1,-1],"split_conditions":[5.796967E0,6.389441E-1,2.7665615E0,-3.0851728E-1,-5E-1,-1.6025639E-1,4.226446E-2,-5.3149974E-4,3.2357028E-4,5.7783746E-3,1.0862523E-3,4.7917194E-3,-5.5995705E-3],"split_indices":[13,13,5,13,46,2,0,0,0,0,0,0,0],"split_type":[0,0,0,0,0,0,0,0,0,0,0,0,0],"sum_hessian":[7.291E3,7.263E3,2.8E1,6.487E3,7.76E2,2E1,8E0,4.271E3,2.216E3,2.21E2,5.55E2,1.5E1,5E0],"tree_param":{"num_deleted":"0","num_feature":"49","num_nodes":"13","size_leaf_vector":"1"}},{"base_weights":[2.0141501E-3,-1.4209632E-3,4.2531282E-1,-6.1018113E-3,2.8655533E-2,6.1616296E-1,1.7551515E-1,-2.5010548E-4,-9.740396E-3,-6.263701E-3,1.7503117E-3,3.5403866E-2,-0E0,-0E0,1.1177273E-2],"categories":[],"categories_nodes":[],"categories_segments":[],"categories_sizes":[],"default_left":[0,0,0,0,0,0,0,0,0,0,0,0,0,0,0],"id":79,"left_children":[1,3,5,7,9,11,13,-1,-1,-1,-1,-1,-1,-1,-1],"loss_changes":[1.1019216E1,1.0150588E0,1.8132048E0,1.1740527E0,9.030629E-1,1.2663517E0,2.2109199E-1,0E0,0E0,0E0,0E0,0E0,0E0,0E0,0E0],"parents":[2147483647,0,0,1,1,2,2,3,3,4,4,5,5,6,6],"right_children":[2,4,6,8,10,12,14,-1,-1,-1,-1,-1,-1,-1,-1],"split_conditions":[5.328477E0,4.798348E-1,-7.818315E-1,1.2197345E0,-5.4018414E-1,2.4175469E-2,-1.6025695E-1,-2.5010548E-4,-9.740396E-3,-6.263701E-3,1.7503117E-3,3.5403866E-2,-0E0,-0E0,1.1177273E-2],"split_indices":[0,0,47,13,10,16,2,0,0,0,0,0,0,0,0],"split_type":[0,0,0,0,0,0,0,0,0,0,0,0,0,0,0],"sum_hessian":[7.367E3,7.311E3,5.6E1,6.35E3,9.61E2,2.6E1,3E1,6.322E3,2.8E1,3E1,9.31E2,2.1E1,5E0,9E0,2.1E1],"tree_param":{"num_deleted":"0","num_feature":"49","num_nodes":"15","size_leaf_vector":"1"}},{"base_weights":[1.2934986E-3,-3.9564534E-3,9.0950765E-2,8.799891E-3,-1.0914604E-2,6.7412086E-2,3.1553817E-1,-0E0,2.1532422E-3,-6.720515E-4,1.066101E-3,4.772618E-3,-5.388395E-4,2.835513E-2,-0E0],"categories":[],"categories_nodes":[],"categories_segments":[],"categories_sizes":[],"default_left":[0,0,0,0,0,0,0,0,0,0,0,0,0,0,0],"id":80,"left_children":[1,3,5,7,9,11,13,-1,-1,-1,-1,-1,-1,-1,-1],"loss_changes":[3.5124288E0,6.162724E-1,1.8088996E0,7.425192E-1,3.637148E-1,9.0411973E-1,2.6257513E0,0E0,0E0,0E0,0E0,0E0,0E0,0E0,0E0],"parents":[2147483647,0,0,1,1,2,2,3,3,4,4,5,5,6,6],"right_children":[2,4,6,8,10,12,14,-1,-1,-1,-1,-1,-1,-1,-1],"split_conditions":[1.3220403E0,-1.729994E-1,5.796967E0,2.3937995E-2,-1.6025612E-1,-3.8404098E-1,-7.818315E-1,-0E0,2.1532422E-3,-6.720515E-4,1.066101E-3,4.772618E-3,-5.388395E-4,2.835513E-2,-0E0],"split_indices":[13,3,13,13,2,10,47,0,0,0,0,0,0,0,0],"split_type":[0,0,0,0,0,0,0,0,0,0,0,0,0,0,0],"sum_hessian":[7.324E3,6.916E3,4.08E2,2.405E3,4.511E3,3.78E2,3E1,1.909E3,4.96E2,4.206E3,3.05E2,2.84E2,9.4E1,1.4E1,1.6E1],"tree_param":{"num_deleted":"0","num_feature":"49","num_nodes":"15","size_leaf_vector":"1"}},{"base_weights":[1.9834074E-3,-3.4191797E-4,5.540133E-1,-3.7088075E-3,1.0795866E-1,4.1925702E-2,1.3868444E-1,-1.1772707E-4,-6.0452796E-3,-3.063321E-3,7.756592E-3,-0E0,9.702368E-3],"categories":[],"categories_nodes":[],"categories_segments":[],"categories_sizes":[],"default_left":[0,0,0,0,0,0,0,0,0,0,0,0,0],"id":81,"left_children":[1,3,5,7,9,-1,11,-1,-1,-1,-1,-1,-1],"loss_changes":[9.793815E0,2.5908704E0,2.5156794E0,1.037747E0,1.8215647E0,0E0,1.8014815E-1,0E0,0E0,0E0,0E0,0E0,0E0],"parents":[2147483647,0,0,1,1,2,2,3,3,4,4,6,6],"right_children":[2,4,6,8,10,-1,12,-1,-1,-1,-1,-1,-1],"split_conditions":[6.023698E0,1.8325313E0,1.2057917E0,1.8606225E0,-1.6025715E-1,4.1925702E-2,-2.1210557E-1,-1.1772707E-4,-6.0452796E-3,-3.063321E-3,7.756592E-3,-0E0,9.702368E-3],"split_indices":[0,0,1,13,2,0,15,0,0,0,0,0,0],"split_type":[0,0,0,0,0,0,0,0,0,0,0,0,0],"sum_hessian":[7.322E3,7.295E3,2.7E1,7.086E3,2.09E2,1.2E1,1.5E1,7.016E3,7E1,4.2E1,1.67E2,5E0,1E1],"tree_param":{"num_deleted":"0","num_feature":"49","num_nodes":"13","size_leaf_vector":"1"}},{"base_weights":[1.6709457E-3,-2.0232241E-4,4.8392624E-1,-3.2017874E-3,7.566933E-2,6.1287224E-1,-0E0,-9.171586E-5,-6.6014673E-3,-9.09775E-3,5.5989516E-3,-0E0,3.7072003E-2],"categories":[],"categories_nodes":[],"categories_segments":[],"categories_sizes":[],"default_left":[0,0,0,0,0,0,0,0,0,0,0,0,0],"id":82,"left_children":[1,3,5,7,9,11,-1,-1,-1,-1,-1,-1,-1],"loss_changes":[7.005236E0,1.6240661E0,1.9891591E0,1.1537621E0,2.5878978E0,1.4302368E0,0E0,0E0,0E0,0E0,0E0,0E0,0E0],"parents":[2147483647,0,0,1,1,2,2,3,3,4,4,5,5],"right_children":[2,4,6,8,10,12,-1,-1,-1,-1,-1,-1,-1],"split_conditions":[6.023698E0,1.6670808E0,3.954468E-1,1.8606225E0,4.770574E-1,-1.6025694E-1,-0E0,-9.171586E-5,-6.6014673E-3,-9.09775E-3,5.5989516E-3,-0E0,3.7072003E-2],"split_indices":[0,0,12,13,13,2,0,0,0,0,0,0,0],"split_type":[0,0,0,0,0,0,0,0,0,0,0,0,0],"sum_hessian":[7.374E3,7.349E3,2.5E1,7.083E3,2.66E2,1.9E1,6E0,7.019E3,6.4E1,2.8E1,2.38E2,5E0,1.4E1],"tree_param":{"num_deleted":"0","num_feature":"49","num_nodes":"13","size_leaf_vector":"1"}},{"base_weights":[4.8358119E-4,-1.9159572E-3,3.0159476E-1,-4.049649E-3,6.9280855E-2,5.378096E-1,6.9437176E-2,-1.3672994E-4,-5.578821E-3,8.40304E-3,-1.1250862E-3,3.484317E-2,1.6207744E-3,-2.0914103E-3,7.0822067E-3],"categories":[],"categories_nodes":[],"categories_segments":[],"categories_sizes":[],"default_left":[0,0,0,0,0,0,0,0,0,0,0,0,0,0,0],"id":83,"left_children":[1,3,5,7,9,11,13,-1,-1,-1,-1,-1,-1,-1,-1],"loss_changes":[5.573821E0,1.0744213E0,2.7333899E0,9.314683E-1,1.9793861E0,1.6273346E0,4.0479183E-1,0E0,0E0,0E0,0E0,0E0,0E0,0E0,0E0],"parents":[2147483647,0,0,1,1,2,2,3,3,4,4,5,5,6,6],"right_children":[2,4,6,8,10,12,14,-1,-1,-1,-1,-1,-1,-1,-1],"split_conditions":[5.328477E0,1.7157164E0,-7.818315E-1,1.8606225E0,-2.4738948E-1,2.8503796E-1,-2.6506543E-1,-1.3672994E-4,-5.578821E-3,8.40304E-3,-1.1250862E-3,3.484317E-2,1.6207744E-3,-2.0914103E-3,7.0822067E-3],"split_indices":[0,0,47,13,6,12,15,0,0,0,0,0,0,0,0],"split_type":[0,0,0,0,0,0,0,0,0,0,0,0,0,0,0],"sum_hessian":[7.415E3,7.359E3,5.6E1,7.159E3,2E2,2.3E1,3.3E1,7.084E3,7.5E1,9.8E1,1.02E2,1.5E1,8E0,1E1,2.3E1],"tree_param":{"num_deleted":"0","num_feature":"49","num_nodes":"15","size_leaf_vector":"1"}},{"base_weights":[8.1998773E-4,-3.4032124E-3,6.7783095E-2,6.6338778E-3,-9.658995E-3,9.634906E-2,-1.0678006E-2,-2.510197E-4,1.5018521E-3,-5.9657515E-4,1.0457701E-3,2.9307872E-3,7.892261E-3,-4.782501E-3,8.6864777E-4],"categories":[],"categories_nodes":[],"categories_segments":[],"categories_sizes":[],"default_left":[0,0,0,0,0,0,0,0,0,0,0,0,0,0,0],"id":84,"left_children":[1,3,5,7,9,11,13,-1,-1,-1,-1,-1,-1,-1,-1],"loss_changes":[2.1242232E0,4.3612748E-1,1.0647411E0,7.3068035E-1,2.9372537E-1,5.772481E-1,3.419775E-1,0E0,0E0,0E0,0E0,0E0,0E0,0E0,0E0],"parents":[2147483647,0,0,1,1,2,2,3,3,4,4,5,5,6,6],"right_children":[2,4,6,8,10,12,14,-1,-1,-1,-1,-1,-1,-1,-1],"split_conditions":[1.2197345E0,-1.9087915E-1,-3.8404098E-1,-2.4380642E-1,-1.6025612E-1,-1.9087866E-1,-4.0099543E-1,-2.510197E-4,1.5018521E-3,-5.9657515E-4,1.0457701E-3,2.9307872E-3,7.892261E-3,-4.782501E-3,8.6864777E-4],"split_indices":[13,4,10,13,2,4,7,0,0,0,0,0,0,0,0],"split_type":[0,0,0,0,0,0,0,0,0,0,0,0,0,0,0],"sum_hessian":[7.343E3,6.902E3,4.41E2,2.607E3,4.295E3,3.29E2,1.12E2,1.723E3,8.84E2,4.022E3,2.73E2,2.17E2,1.12E2,3.1E1,8.1E1],"tree_param":{"num_deleted":"0","num_feature":"49","num_nodes":"15","size_leaf_vector":"1"}},{"base_weights":[2.1231924E-3,-1.6534141E-3,2.3045562E-1,-1.1867736E-2,7.416598E-3,1.2487896E-1,5.135968E-1,-1.0633867E-3,-2.9898164E-4,-0E0,1.6822756E-3,1.289701E-2,-0E0,3.0399626E-2,5.276455E-4],"categories":[],"categories_nodes":[],"categories_segments":[],"categories_sizes":[],"default_left":[0,0,0,0,0,0,0,0,0,0,0,0,0,0,0],"id":85,"left_children":[1,3,5,7,9,11,13,-1,-1,-1,-1,-1,-1,-1,-1],"loss_changes":[6.5191026E0,6.7559564E-1,2.9092307E0,1.7124206E-1,7.6288784E-1,1.4657055E0,9.594946E-1,0E0,0E0,0E0,0E0,0E0,0E0,0E0,0E0],"parents":[2147483647,0,0,1,1,2,2,3,3,4,4,5,5,6,6],"right_children":[2,4,6,8,10,12,14,-1,-1,-1,-1,-1,-1,-1,-1],"split_conditions":[2.775555E0,-3.8784838E-1,7.570522E-1,-5.0227636E-1,8.344032E6,-7.4463797E-1,6.123234E-17,-1.0633867E-3,-2.9898164E-4,-0E0,1.6822756E-3,1.289701E-2,-0E0,3.0399626E-2,5.276455E-4],"split_indices":[0,0,4,0,14,7,46,0,0,0,0,0,0,0,0],"split_type":[0,0,0,0,0,0,0,0,0,0,0,0,0,0,0],"sum_hessian":[7.367E3,7.249E3,1.18E2,3.445E3,3.804E3,9.3E1,2.5E1,1.276E3,2.169E3,2.95E3,8.54E2,4E1,5.3E1,1.9E1,6E0],"tree_param":{"num_deleted":"0","num_feature":"49","num_nodes":"15","size_leaf_vector":"1"}},{"base_weights":[-5.251496E-4,-1.7780669E-3,3.0399638E-1,-3.6634037E-3,5.948572E-2,2.6741538E-2,-0E0,-1.2830457E-4,-5.087841E-3,-8.07039E-3,5.099164E-3,-2.570778E-3,-0E0],"categories":[],"categories_nodes":[],"categories_segments":[],"categories_sizes":[],"default_left":[0,0,0,0,0,0,0,0,0,0,0,0,0],"id":86,"left_children":[1,3,5,7,9,-1,11,-1,-1,-1,-1,-1,-1],"loss_changes":[2.6088247E0,8.1234616E-1,2.2751606E0,6.9614923E-1,2.0026813E0,0E0,2.9079156E-2,0E0,0E0,0E0,0E0,0E0,0E0],"parents":[2147483647,0,0,1,1,2,2,3,3,4,4,6,6],"right_children":[2,4,6,8,10,-1,12,-1,-1,-1,-1,-1,-1],"split_conditions":[6.023698E0,1.8325313E0,-7.818315E-1,1.8606225E0,7.232814E-1,2.6741538E-2,-1.908789E-1,-1.2830457E-4,-5.087841E-3,-8.07039E-3,5.099164E-3,-2.570778E-3,-0E0],"split_indices":[0,0,47,13,13,0,4,0,0,0,0,0,0],"split_type":[0,0,0,0,0,0,0,0,0,0,0,0,0],"sum_hessian":[7.38E3,7.357E3,2.3E1,7.153E3,2.04E2,1.2E1,1.1E1,7.086E3,6.7E1,2.8E1,1.76E2,6E0,5E0],"tree_param":{"num_deleted":"0","num_feature":"49","num_nodes":"13","size_leaf_vector":"1"}},{"base_weights":[1.7735201E-3,-5.0720428E-5,4.1570768E-1,-3.866967E-3,8.0963224E-2,3.1920787E-2,6.5208115E-2,-1.10934314E-4,-3.934241E-3,8.646613E-3,1.5605469E-3,9.214897E-3,-8.25535E-5],"categories":[],"categories_nodes":[],"categories_segments":[],"categories_sizes":[],"default_left":[0,0,0,0,0,0,0,0,0,0,0,0,0],"id":87,"left_children":[1,3,5,7,9,-1,11,-1,-1,-1,-1,-1,-1],"loss_changes":[5.852491E0,2.215663E0,1.9533224E0,8.0808353E-1,1.3034787E0,0E0,2.8861922E-1,0E0,0E0,0E0,0E0,0E0,0E0],"parents":[2147483647,0,0,1,1,2,2,3,3,4,4,6,6],"right_children":[2,4,6,8,10,-1,12,-1,-1,-1,-1,-1,-1],"split_conditions":[6.023698E0,1.5434031E0,-6.7434746E-1,1.4258E0,-3.7712497E-1,3.1920787E-2,-1.6025646E-1,-1.10934314E-4,-3.934241E-3,8.646613E-3,1.5605469E-3,9.214897E-3,